{
  "type": "LSTM",
  "options": {
    "inputSize": 42,
    "inputRange": 42,
    "hiddenLayers": [
      20,
      20
    ],
    "outputSize": 42,
    "decayRate": 0.999,
    "smoothEps": 1e-8,
    "regc": 0.000001,
    "clipval": 5,
    "maxPredictionLength": 100,
    "dataFormatter": {
      "values": [
        "365",
        "65 customer",
        "Adoption Management",
        "Covid Risk Assessment + Portfolio View",
        "D365 Customer Service Solution",
        "Qualtrics Integration Solution",
        "Service Cloud",
        "Service Now",
        "Survey Dashboard",
        "Survey Monkey Integration Solution",
        "ado",
        "adop",
        "adoption",
        "asses",
        "clou",
        "cloud",
        "cov",
        "covid risk ",
        "d3",
        "d365",
        "dashboard",
        "integration",
        "monkey",
        "now",
        "portfolio",
        "qua",
        "qual",
        "qualtrics",
        "ser",
        "serv",
        "service",
        "su",
        "sur",
        "survey",
        "survey d",
        "survey dashboard",
        "trics",
        "vey"
      ],
      "indexTable": {
        "3": 0,
        "5": 2,
        "6": 1,
        " ": 3,
        "c": 4,
        "u": 5,
        "s": 6,
        "t": 7,
        "o": 8,
        "m": 9,
        "e": 10,
        "r": 11,
        "A": 12,
        "d": 13,
        "p": 14,
        "i": 15,
        "n": 16,
        "M": 17,
        "a": 18,
        "g": 19,
        "C": 20,
        "v": 21,
        "R": 22,
        "k": 23,
        "+": 24,
        "P": 25,
        "f": 26,
        "l": 27,
        "V": 28,
        "w": 29,
        "D": 30,
        "S": 31,
        "Q": 32,
        "I": 33,
        "N": 34,
        "y": 35,
        "h": 36,
        "b": 37,
        "q": 38,
        "stop-input": 39,
        "start-output": 40,
        "unrecognized": 41
      },
      "characterTable": {
        "0": "3",
        "1": "6",
        "2": "5",
        "3": " ",
        "4": "c",
        "5": "u",
        "6": "s",
        "7": "t",
        "8": "o",
        "9": "m",
        "10": "e",
        "11": "r",
        "12": "A",
        "13": "d",
        "14": "p",
        "15": "i",
        "16": "n",
        "17": "M",
        "18": "a",
        "19": "g",
        "20": "C",
        "21": "v",
        "22": "R",
        "23": "k",
        "24": "+",
        "25": "P",
        "26": "f",
        "27": "l",
        "28": "V",
        "29": "w",
        "30": "D",
        "31": "S",
        "32": "Q",
        "33": "I",
        "34": "N",
        "35": "y",
        "36": "h",
        "37": "b",
        "38": "q",
        "39": null,
        "40": null,
        "41": null
      },
      "characters": [
        "3",
        "6",
        "5",
        " ",
        "c",
        "u",
        "s",
        "t",
        "o",
        "m",
        "e",
        "r",
        "A",
        "d",
        "p",
        "i",
        "n",
        "M",
        "a",
        "g",
        "C",
        "v",
        "R",
        "k",
        "+",
        "P",
        "f",
        "l",
        "V",
        "w",
        "D",
        "S",
        "Q",
        "I",
        "N",
        "y",
        "h",
        "b",
        "q",
        "stop-input",
        "start-output",
        "unrecognized"
      ],
      "specialIndexes": [
        39,
        40,
        41
      ]
    }
  },
  "input": {
    "rows": 43,
    "columns": 42,
    "weights": {
      "0": 0.40623196959495544,
      "1": -1.1275146007537842,
      "2": -1.8210639953613281,
      "3": 2.4900336265563965,
      "4": -2.556849241256714,
      "5": -1.210283637046814,
      "6": 0.6497089862823486,
      "7": -2.509366035461426,
      "8": 1.3045132160186768,
      "9": 0.1880418062210083,
      "10": 0.44154587388038635,
      "11": -2.2355358600616455,
      "12": -1.055506944656372,
      "13": 1.6989423036575317,
      "14": -1.078393816947937,
      "15": -0.47733139991760254,
      "16": 2.8179783821105957,
      "17": -3.95192551612854,
      "18": 1.5459259748458862,
      "19": 0.601106584072113,
      "20": -2.3414125442504883,
      "21": -1.5824577808380127,
      "22": -3.8007712364196777,
      "23": -1.4653784036636353,
      "24": 2.213402271270752,
      "25": -1.0394402742385864,
      "26": 0.7991383075714111,
      "27": -1.8868883848190308,
      "28": -1.6398062705993652,
      "29": -1.2611254453659058,
      "30": 0.41225436329841614,
      "31": -1.786759376525879,
      "32": -1.2057486772537231,
      "33": 0.13267849385738373,
      "34": -1.1736986637115479,
      "35": 0.6308309435844421,
      "36": 0.26580673456192017,
      "37": 2.774557113647461,
      "38": -0.5761963725090027,
      "39": 1.2640259265899658,
      "40": 0.9899422526359558,
      "41": 4.228636741638184,
      "42": 10.526822090148926,
      "43": -0.5114331841468811,
      "44": 1.9381135702133179,
      "45": 8.62381362915039,
      "46": 2.4873523712158203,
      "47": 4.679384708404541,
      "48": -4.490344047546387,
      "49": 1.7417067289352417,
      "50": -7.510450839996338,
      "51": 3.600472927093506,
      "52": -3.6178555488586426,
      "53": 2.615751266479492,
      "54": -0.3608679175376892,
      "55": 7.811290740966797,
      "56": -3.7751097679138184,
      "57": 11.923264503479004,
      "58": 1.7503715753555298,
      "59": 2.7490737438201904,
      "60": -3.511990547180176,
      "61": 1.274431586265564,
      "62": -0.9581131339073181,
      "63": 1.5126869678497314,
      "64": 19.399450302124023,
      "65": 1.4363908767700195,
      "66": -0.29422053694725037,
      "67": 2.675137758255005,
      "68": 4.081137180328369,
      "69": 5.198634624481201,
      "70": -7.591126441955566,
      "71": 8.377199172973633,
      "72": 5.058987617492676,
      "73": -4.293547630310059,
      "74": -3.7549612522125244,
      "75": 11.371530532836914,
      "76": 3.3487789630889893,
      "77": 5.786642074584961,
      "78": 0.5448194742202759,
      "79": 2.4478800296783447,
      "80": 2.9787895679473877,
      "81": -3.8208916187286377,
      "82": -0.3153964579105377,
      "83": -8.017647743225098,
      "84": 6.335190296173096,
      "85": 2.323150873184204,
      "86": -2.602766752243042,
      "87": 0.10944492369890213,
      "88": -8.068429946899414,
      "89": -5.847471714019775,
      "90": -0.36325642466545105,
      "91": -3.9345765113830566,
      "92": -4.951460361480713,
      "93": 4.146108150482178,
      "94": -0.5547856092453003,
      "95": -5.638768672943115,
      "96": 4.367211818695068,
      "97": -0.465640127658844,
      "98": 3.6901919841766357,
      "99": 0.18059369921684265,
      "100": 5.963970184326172,
      "101": 5.103950500488281,
      "102": 0.709794819355011,
      "103": -2.4371120929718018,
      "104": 5.57968282699585,
      "105": 0.03453116491436958,
      "106": 3.17409348487854,
      "107": 4.429494857788086,
      "108": 10.092544555664062,
      "109": -6.056859970092773,
      "110": -0.695284903049469,
      "111": 4.439266681671143,
      "112": 6.002188205718994,
      "113": -4.03412389755249,
      "114": 5.257141590118408,
      "115": -5.057912349700928,
      "116": 0.752856433391571,
      "117": -1.742844820022583,
      "118": 1.0355734825134277,
      "119": -1.2235019207000732,
      "120": -0.4370822608470917,
      "121": 2.839524269104004,
      "122": -1.98285973072052,
      "123": 2.42242693901062,
      "124": 3.412076711654663,
      "125": -4.508530139923096,
      "126": -1.9667950868606567,
      "127": -5.33736515045166,
      "128": -8.755001068115234,
      "129": -4.77243709564209,
      "130": -8.032281875610352,
      "131": 5.5149431228637695,
      "132": -4.734719753265381,
      "133": 2.471827745437622,
      "134": -3.165005683898926,
      "135": -0.37158840894699097,
      "136": 3.8372175693511963,
      "137": -1.1168228387832642,
      "138": 7.831366539001465,
      "139": 0.48826122283935547,
      "140": 0.8509499430656433,
      "141": 5.845561981201172,
      "142": -0.5966434478759766,
      "143": -2.228828191757202,
      "144": -6.504384517669678,
      "145": -8.449542999267578,
      "146": -3.9393506050109863,
      "147": 2.265561819076538,
      "148": 5.839812278747559,
      "149": 9.589292526245117,
      "150": -4.416225910186768,
      "151": 0.12448448687791824,
      "152": 2.9764225482940674,
      "153": -0.14956164360046387,
      "154": 0.8723432421684265,
      "155": 2.2245845794677734,
      "156": -2.1139419078826904,
      "157": 2.295999050140381,
      "158": 3.785557746887207,
      "159": 0.4931183457374573,
      "160": -9.01416015625,
      "161": -0.5934648513793945,
      "162": -3.4480838775634766,
      "163": 3.4585483074188232,
      "164": -0.7560368180274963,
      "165": 5.733090400695801,
      "166": -2.83722186088562,
      "167": -4.888722896575928,
      "168": 0.35652610659599304,
      "169": 1.742422103881836,
      "170": -5.218322277069092,
      "171": -0.6390582323074341,
      "172": -3.665026903152466,
      "173": -0.658200204372406,
      "174": 0.6260296702384949,
      "175": 2.3222975730895996,
      "176": -0.8760722279548645,
      "177": -0.9637956023216248,
      "178": 1.1518460512161255,
      "179": -0.3407711982727051,
      "180": 2.128664970397949,
      "181": 1.2279175519943237,
      "182": 2.1589717864990234,
      "183": 2.3634872436523438,
      "184": 1.4251420497894287,
      "185": 1.7403315305709839,
      "186": 3.0479421615600586,
      "187": -3.0691819190979004,
      "188": 1.82705557346344,
      "189": 0.21152806282043457,
      "190": -0.44662922620773315,
      "191": 0.7312995195388794,
      "192": 1.392049789428711,
      "193": -4.409539699554443,
      "194": 0.20395199954509735,
      "195": 1.7101839780807495,
      "196": 0.08880289644002914,
      "197": 0.6633331179618835,
      "198": 0.3833218216896057,
      "199": 2.4052927494049072,
      "200": -1.465078592300415,
      "201": -3.51621675491333,
      "202": -2.1796536445617676,
      "203": -1.864240288734436,
      "204": 0.22867831587791443,
      "205": -1.712341547012329,
      "206": 2.1801531314849854,
      "207": 0.5500297546386719,
      "208": -2.376904249191284,
      "209": -2.159250259399414,
      "210": -0.9019615650177002,
      "211": -0.8434770107269287,
      "212": 1.2795310020446777,
      "213": 1.6464004516601562,
      "214": 1.1937737464904785,
      "215": -6.655980110168457,
      "216": -6.362773418426514,
      "217": -2.8082263469696045,
      "218": -0.5401530861854553,
      "219": -0.015111017040908337,
      "220": -0.18886880576610565,
      "221": -3.3135483264923096,
      "222": -3.590827703475952,
      "223": 1.6359939575195312,
      "224": 0.4441855847835541,
      "225": 1.8234038352966309,
      "226": 6.08236837387085,
      "227": -2.728541374206543,
      "228": -1.5035194158554077,
      "229": 2.530221939086914,
      "230": -0.633821427822113,
      "231": -1.1399908065795898,
      "232": -1.4704879522323608,
      "233": 0.5131945610046387,
      "234": -3.3784074783325195,
      "235": 3.587115526199341,
      "236": 2.3609249591827393,
      "237": -5.800048828125,
      "238": 1.0369091033935547,
      "239": 1.9134433269500732,
      "240": 1.934903621673584,
      "241": -1.6057263612747192,
      "242": -0.26386135816574097,
      "243": -0.14972592890262604,
      "244": -0.7775616645812988,
      "245": 1.4607824087142944,
      "246": 5.033818244934082,
      "247": 1.4359660148620605,
      "248": -1.0564101934432983,
      "249": 5.064206123352051,
      "250": -3.4887161254882812,
      "251": -1.1360185146331787,
      "252": 2.795330047607422,
      "253": -3.590534210205078,
      "254": -0.6016093492507935,
      "255": -2.50390887260437,
      "256": 2.041196346282959,
      "257": -3.5102856159210205,
      "258": 1.2513350248336792,
      "259": 0.39207467436790466,
      "260": 0.25252464413642883,
      "261": -1.8352597951889038,
      "262": 3.6448581218719482,
      "263": 4.462226390838623,
      "264": -0.8416893482208252,
      "265": 0.42281532287597656,
      "266": 3.2091705799102783,
      "267": 0.025118006393313408,
      "268": -3.5695576667785645,
      "269": 1.5924811363220215,
      "270": 0.846836268901825,
      "271": 2.7174277305603027,
      "272": -5.189507961273193,
      "273": 3.399115562438965,
      "274": -2.333456516265869,
      "275": -1.918351173400879,
      "276": -2.180553436279297,
      "277": 0.548823356628418,
      "278": -1.8113492727279663,
      "279": -0.9735299944877625,
      "280": 3.002925157546997,
      "281": -3.8685576915740967,
      "282": 2.881160020828247,
      "283": -2.903789520263672,
      "284": -1.2591304779052734,
      "285": -1.6696354150772095,
      "286": -4.842294692993164,
      "287": -2.398397445678711,
      "288": 0.11773917078971863,
      "289": -1.3942996263504028,
      "290": 4.462451934814453,
      "291": -1.1519436836242676,
      "292": -1.7118974924087524,
      "293": 2.0992226600646973,
      "294": 0.15718846023082733,
      "295": -2.8102564811706543,
      "296": 1.581141710281372,
      "297": 0.6555598378181458,
      "298": 0.34531569480895996,
      "299": 3.263230085372925,
      "300": 0.3747865855693817,
      "301": -1.891857624053955,
      "302": 0.9947983026504517,
      "303": 0.5243479013442993,
      "304": -1.671891689300537,
      "305": -0.427830308675766,
      "306": -0.515845000743866,
      "307": 1.3840997219085693,
      "308": 0.7432377934455872,
      "309": 1.6828960180282593,
      "310": -0.5076141357421875,
      "311": -3.650984764099121,
      "312": -3.164592981338501,
      "313": 0.550784170627594,
      "314": -1.3247630596160889,
      "315": 1.4405359029769897,
      "316": 4.240649223327637,
      "317": 2.4330978393554688,
      "318": 2.364243984222412,
      "319": 0.8322648406028748,
      "320": 1.3235102891921997,
      "321": -3.9010818004608154,
      "322": 1.686017394065857,
      "323": 1.5365805625915527,
      "324": 4.3129801750183105,
      "325": -2.4026169776916504,
      "326": -0.6662195920944214,
      "327": -0.0015076983254402876,
      "328": 0.5485633611679077,
      "329": 0.7672814726829529,
      "330": -1.8301973342895508,
      "331": -1.3727920055389404,
      "332": 2.015864372253418,
      "333": -0.2888934314250946,
      "334": 2.346632480621338,
      "335": -5.576425552368164,
      "336": -0.9447047114372253,
      "337": -2.0988073348999023,
      "338": -1.9305436611175537,
      "339": -6.015984535217285,
      "340": 2.178483724594116,
      "341": -2.5488698482513428,
      "342": -4.436000823974609,
      "343": -0.22972120344638824,
      "344": -2.602792263031006,
      "345": 0.0855259895324707,
      "346": -1.6382591724395752,
      "347": 8.545499801635742,
      "348": -0.0723726898431778,
      "349": -1.2855900526046753,
      "350": 4.169922351837158,
      "351": 0.5100169777870178,
      "352": -5.802242755889893,
      "353": 0.8900114893913269,
      "354": 0.6926764249801636,
      "355": 2.2371938228607178,
      "356": 3.2209525108337402,
      "357": 2.708613157272339,
      "358": -3.263791084289551,
      "359": 0.7861101031303406,
      "360": -1.4508641958236694,
      "361": -5.23764705657959,
      "362": -0.398264080286026,
      "363": -4.457452297210693,
      "364": 5.455967903137207,
      "365": -0.34754058718681335,
      "366": 0.9676530361175537,
      "367": 3.5362467765808105,
      "368": 1.5920950174331665,
      "369": -1.8829433917999268,
      "370": -8.012310028076172,
      "371": 0.10879076272249222,
      "372": 0.48050180077552795,
      "373": -4.282301425933838,
      "374": 1.1510083675384521,
      "375": 2.408029079437256,
      "376": -1.0916383266448975,
      "377": 1.1192915439605713,
      "378": -1.8729661703109741,
      "379": 2.8129756450653076,
      "380": -0.10003398358821869,
      "381": -1.2477701902389526,
      "382": -2.473700761795044,
      "383": 2.214062452316284,
      "384": -0.1695147007703781,
      "385": 2.514441728591919,
      "386": 4.497344017028809,
      "387": 1.1160683631896973,
      "388": -1.7572357654571533,
      "389": -0.37317731976509094,
      "390": 1.5675557851791382,
      "391": -1.0093861818313599,
      "392": -1.892594814300537,
      "393": -1.8045322895050049,
      "394": 2.111227035522461,
      "395": 1.5682706832885742,
      "396": -2.2172935009002686,
      "397": -1.405680537223816,
      "398": 4.1738739013671875,
      "399": -0.08055128157138824,
      "400": 2.394505500793457,
      "401": -1.1887277364730835,
      "402": 0.8518714904785156,
      "403": -0.37263378500938416,
      "404": 0.18545904755592346,
      "405": 1.8498985767364502,
      "406": -4.0490922927856445,
      "407": 1.0790300369262695,
      "408": -4.433811664581299,
      "409": 1.705761432647705,
      "410": 1.1714568138122559,
      "411": 1.5299710035324097,
      "412": 1.4435577392578125,
      "413": 2.623136043548584,
      "414": 2.036444664001465,
      "415": 0.13312378525733948,
      "416": -3.856822967529297,
      "417": -1.1343876123428345,
      "418": -2.3384268283843994,
      "419": 0.7031767964363098,
      "420": 1.8624053001403809,
      "421": -2.623173713684082,
      "422": 1.7617005109786987,
      "423": 2.2010562419891357,
      "424": -1.2405204772949219,
      "425": -1.8988521099090576,
      "426": 3.161252021789551,
      "427": -4.329843521118164,
      "428": 0.510864794254303,
      "429": 3.142789840698242,
      "430": -0.14317815005779266,
      "431": -1.0408366918563843,
      "432": -1.6642396450042725,
      "433": -0.8973065614700317,
      "434": -2.826687812805176,
      "435": -8.296658515930176,
      "436": 2.977292060852051,
      "437": 4.647299766540527,
      "438": -0.13833175599575043,
      "439": 1.64596688747406,
      "440": 1.6858062744140625,
      "441": 4.4589667320251465,
      "442": 3.4410743713378906,
      "443": -2.6523449420928955,
      "444": 1.7726284265518188,
      "445": -0.11492128670215607,
      "446": 3.76295804977417,
      "447": 1.430862545967102,
      "448": 6.0622100830078125,
      "449": -5.621433734893799,
      "450": 3.635281801223755,
      "451": 2.7822813987731934,
      "452": 2.133424997329712,
      "453": -4.439807891845703,
      "454": -1.6999621391296387,
      "455": -3.7065539360046387,
      "456": -2.433260202407837,
      "457": -0.598885715007782,
      "458": -1.9368934631347656,
      "459": -2.5125081539154053,
      "460": -0.9080080389976501,
      "461": 2.963010311126709,
      "462": -0.8036867380142212,
      "463": 1.6093449592590332,
      "464": -0.7880232334136963,
      "465": -3.7716305255889893,
      "466": -0.014303918927907944,
      "467": -1.4809520244598389,
      "468": -0.7145877480506897,
      "469": 3.073234796524048,
      "470": -0.6946544647216797,
      "471": 0.8202143907546997,
      "472": 0.76665860414505,
      "473": -0.10505110025405884,
      "474": 0.8475304841995239,
      "475": 0.05829828605055809,
      "476": 4.0975823402404785,
      "477": 4.207279682159424,
      "478": -0.1380860060453415,
      "479": 1.73015558719635,
      "480": -0.7173601388931274,
      "481": -6.821457862854004,
      "482": 1.3872448205947876,
      "483": -0.5715999007225037,
      "484": -3.0098283290863037,
      "485": 2.6562681198120117,
      "486": 0.36935660243034363,
      "487": 1.2761379480361938,
      "488": -3.4442687034606934,
      "489": -0.6618226766586304,
      "490": -0.5075268745422363,
      "491": -0.3404896855354309,
      "492": 0.6146425008773804,
      "493": 0.22995024919509888,
      "494": 2.0854480266571045,
      "495": -0.9589533805847168,
      "496": -1.4395371675491333,
      "497": 0.5972801446914673,
      "498": 4.314357280731201,
      "499": 1.836004614830017,
      "500": -2.6389520168304443,
      "501": -1.970491647720337,
      "502": -2.477057456970215,
      "503": -2.5031516551971436,
      "504": -0.844254732131958,
      "505": -1.0443834066390991,
      "506": 4.114126205444336,
      "507": -0.4515606164932251,
      "508": 2.1818583011627197,
      "509": -2.429990291595459,
      "510": -2.1095924377441406,
      "511": 4.148903846740723,
      "512": -0.9501994848251343,
      "513": 0.8547385334968567,
      "514": -0.7604697346687317,
      "515": 0.6100187301635742,
      "516": 0.07349956780672073,
      "517": -2.2443413734436035,
      "518": 1.430030345916748,
      "519": 0.37904468178749084,
      "520": 1.0386594533920288,
      "521": 0.52735835313797,
      "522": -2.85817813873291,
      "523": 0.7636528015136719,
      "524": 2.0009076595306396,
      "525": 0.32543978095054626,
      "526": 2.2062833309173584,
      "527": 0.20583301782608032,
      "528": -1.7350456714630127,
      "529": 1.2867519855499268,
      "530": 1.555988073348999,
      "531": -2.9386110305786133,
      "532": 1.8398841619491577,
      "533": 1.2473818063735962,
      "534": -0.7991154789924622,
      "535": 1.5088359117507935,
      "536": -0.7547686696052551,
      "537": -1.5564786195755005,
      "538": 0.18671898543834686,
      "539": 0.9944170117378235,
      "540": 0.6449233293533325,
      "541": -0.4992007911205292,
      "542": 0.2770116925239563,
      "543": 2.5466325283050537,
      "544": 2.4127280712127686,
      "545": -3.0568947792053223,
      "546": -2.075542688369751,
      "547": -0.6811354160308838,
      "548": -1.2076034545898438,
      "549": -0.829883337020874,
      "550": -2.613225221633911,
      "551": 7.677239894866943,
      "552": 1.0858209133148193,
      "553": -1.1085377931594849,
      "554": -0.8348678946495056,
      "555": -0.6375495195388794,
      "556": -11.503652572631836,
      "557": 0.694351315498352,
      "558": 2.2597923278808594,
      "559": -2.3416643142700195,
      "560": -0.4443095922470093,
      "561": -0.3670508563518524,
      "562": -1.3869805335998535,
      "563": -1.4020863771438599,
      "564": -0.9259611964225769,
      "565": 2.3096513748168945,
      "566": -0.943028450012207,
      "567": 0.03565791994333267,
      "568": 0.052412815392017365,
      "569": -0.7318704128265381,
      "570": 1.9228291511535645,
      "571": -1.59563148021698,
      "572": 6.056180477142334,
      "573": -0.10728190839290619,
      "574": 1.2955795526504517,
      "575": -8.228093147277832,
      "576": -2.6982436180114746,
      "577": -5.536515235900879,
      "578": 6.5627522468566895,
      "579": -3.101970672607422,
      "580": 8.534860610961914,
      "581": -5.789728164672852,
      "582": -4.592103958129883,
      "583": 2.6586897373199463,
      "584": 1.305098056793213,
      "585": 3.2383713722229004,
      "586": 5.819397926330566,
      "587": 3.7572386264801025,
      "588": 3.279839277267456,
      "589": -5.354040622711182,
      "590": 1.7898647785186768,
      "591": -2.6143155097961426,
      "592": -1.1156105995178223,
      "593": -3.9275734424591064,
      "594": 1.0367425680160522,
      "595": 1.234134316444397,
      "596": -4.639085292816162,
      "597": 2.2552714347839355,
      "598": 1.9484306573867798,
      "599": 1.2546939849853516,
      "600": 1.1822874546051025,
      "601": 6.595538139343262,
      "602": 2.691108226776123,
      "603": 6.035187721252441,
      "604": -0.9202996492385864,
      "605": 0.5765421986579895,
      "606": 2.1990482807159424,
      "607": -0.7472909092903137,
      "608": -1.3832957744598389,
      "609": -0.966924250125885,
      "610": 3.6722075939178467,
      "611": 1.1329158544540405,
      "612": -1.684801697731018,
      "613": 1.4138377904891968,
      "614": 1.3976558446884155,
      "615": 0.7696802020072937,
      "616": -2.606513500213623,
      "617": 1.1121236085891724,
      "618": 3.608027935028076,
      "619": 3.984741449356079,
      "620": -4.993112087249756,
      "621": 2.739663600921631,
      "622": -2.2997066974639893,
      "623": 1.002529263496399,
      "624": -0.8866641521453857,
      "625": -2.741900682449341,
      "626": 5.751816749572754,
      "627": 1.8382855653762817,
      "628": -6.100249290466309,
      "629": -1.292182207107544,
      "630": 3.746107339859009,
      "631": 1.9469512701034546,
      "632": -1.0471737384796143,
      "633": 4.039363384246826,
      "634": 9.360157012939453,
      "635": 4.234025955200195,
      "636": -0.6627463698387146,
      "637": -4.4728193283081055,
      "638": 3.4983341693878174,
      "639": 5.01439094543457,
      "640": 1.8256561756134033,
      "641": -4.522274017333984,
      "642": -4.745173454284668,
      "643": 5.866821765899658,
      "644": 11.882760047912598,
      "645": -4.887017726898193,
      "646": -5.999392986297607,
      "647": 4.613870143890381,
      "648": -8.301797866821289,
      "649": -8.673913955688477,
      "650": 3.4435057640075684,
      "651": 4.886415004730225,
      "652": -8.297346115112305,
      "653": 1.1243774890899658,
      "654": 1.0710951089859009,
      "655": -2.8517470359802246,
      "656": -7.3669819831848145,
      "657": -1.9886760711669922,
      "658": -6.166068077087402,
      "659": 0.24374154210090637,
      "660": 4.1273651123046875,
      "661": -3.7230660915374756,
      "662": 3.7356083393096924,
      "663": -1.1618274450302124,
      "664": -4.895984649658203,
      "665": -0.6605649590492249,
      "666": 6.908545970916748,
      "667": -7.500495910644531,
      "668": 3.9979052543640137,
      "669": -7.257951259613037,
      "670": 3.7121171951293945,
      "671": -5.9848151206970215,
      "672": -4.156822204589844,
      "673": -0.12900759279727936,
      "674": 1.300455927848816,
      "675": 2.802765130996704,
      "676": 0.21924878656864166,
      "677": 1.22493577003479,
      "678": 1.6609828472137451,
      "679": -0.6754924654960632,
      "680": 1.9594359397888184,
      "681": -2.8946774005889893,
      "682": -3.6319661140441895,
      "683": -2.514958143234253,
      "684": 1.2915655374526978,
      "685": 1.4340544939041138,
      "686": -0.5539459586143494,
      "687": -4.71665096282959,
      "688": -0.12216115742921829,
      "689": -3.7975196838378906,
      "690": 0.38462841510772705,
      "691": 1.0561463832855225,
      "692": -3.739314317703247,
      "693": 0.6114965081214905,
      "694": 0.30317625403404236,
      "695": -2.889418840408325,
      "696": 0.22731132805347443,
      "697": -0.6263112425804138,
      "698": -1.535152792930603,
      "699": 1.8369734287261963,
      "700": 0.6209502220153809,
      "701": -2.2429656982421875,
      "702": -2.2225325107574463,
      "703": -3.8271191120147705,
      "704": -0.19611147046089172,
      "705": -3.4358413219451904,
      "706": 2.288783550262451,
      "707": -2.771557092666626,
      "708": -2.11736798286438,
      "709": -1.450866937637329,
      "710": 0.7614971995353699,
      "711": 0.2669523060321808,
      "712": -0.24166910350322723,
      "713": 3.919203281402588,
      "714": -0.43520304560661316,
      "715": -3.023890733718872,
      "716": -4.184250831604004,
      "717": -0.5192180871963501,
      "718": -3.5506222248077393,
      "719": 1.9480620622634888,
      "720": 3.49226975440979,
      "721": -3.43794322013855,
      "722": -4.919583797454834,
      "723": -2.994492292404175,
      "724": 2.043651580810547,
      "725": 1.7590243816375732,
      "726": 0.08574426174163818,
      "727": -1.9607548713684082,
      "728": -2.6636829376220703,
      "729": 1.9763715267181396,
      "730": 4.3443427085876465,
      "731": 4.0784993171691895,
      "732": -1.0529152154922485,
      "733": 1.4340003728866577,
      "734": 0.046334125101566315,
      "735": 3.7854881286621094,
      "736": 0.18917228281497955,
      "737": 0.7019522786140442,
      "738": -0.03846222162246704,
      "739": -7.182373523712158,
      "740": 0.7273657321929932,
      "741": 1.4305579662322998,
      "742": 3.7610700130462646,
      "743": -2.0176334381103516,
      "744": -3.572023630142212,
      "745": 2.8918182849884033,
      "746": -1.2856414318084717,
      "747": -5.343611240386963,
      "748": -1.0553444623947144,
      "749": -0.18244032561779022,
      "750": 0.4000972509384155,
      "751": -2.5522022247314453,
      "752": 1.7788563966751099,
      "753": -1.2935147285461426,
      "754": 2.810798406600952,
      "755": -0.12578685581684113,
      "756": -2.6175711154937744,
      "757": 5.998284816741943,
      "758": 4.086781024932861,
      "759": -4.903715133666992,
      "760": -1.9972023963928223,
      "761": -2.3352630138397217,
      "762": -0.9989157915115356,
      "763": 5.085823059082031,
      "764": -3.004652976989746,
      "765": -4.417332649230957,
      "766": -3.792771816253662,
      "767": -0.5891103148460388,
      "768": 3.0166194438934326,
      "769": -3.2371206283569336,
      "770": -2.667724132537842,
      "771": 2.0975162982940674,
      "772": -0.22218488156795502,
      "773": 6.738012790679932,
      "774": 5.646106243133545,
      "775": -3.0622522830963135,
      "776": 11.439079284667969,
      "777": -5.33340311050415,
      "778": 0.5719571709632874,
      "779": 7.027233600616455,
      "780": -9.99203872680664,
      "781": 7.148805141448975,
      "782": -5.8279290199279785,
      "783": 4.546509265899658,
      "784": -3.781371831893921,
      "785": 6.017138481140137,
      "786": -8.349564552307129,
      "787": 7.791392803192139,
      "788": 1.2132362127304077,
      "789": 0.4672591984272003,
      "790": 6.932728290557861,
      "791": 7.296478748321533,
      "792": -5.010318279266357,
      "793": -2.061602830886841,
      "794": -1.3867418766021729,
      "795": 0.14981615543365479,
      "796": 2.423898696899414,
      "797": -0.9837571382522583,
      "798": 1.44491446018219,
      "799": 2.1640849113464355,
      "800": -6.947481155395508,
      "801": 3.7881875038146973,
      "802": -4.79971981048584,
      "803": -1.9251517057418823,
      "804": -0.07338745146989822,
      "805": -3.5091121196746826,
      "806": -0.07869516313076019,
      "807": 4.453646659851074,
      "808": -3.9877960681915283,
      "809": -0.8072951436042786,
      "810": 0.35858598351478577,
      "811": 0.4823090732097626,
      "812": -0.13194039463996887,
      "813": -0.26056939363479614,
      "814": 4.504479885101318,
      "815": -1.041375994682312,
      "816": 5.407689094543457,
      "817": 4.582112789154053,
      "818": -3.3388235569000244,
      "819": -3.5631167888641357,
      "820": -2.511357069015503,
      "821": 3.2817020416259766,
      "822": 3.6793484687805176,
      "823": 0.332156777381897,
      "824": -1.116326928138733,
      "825": -3.1304802894592285,
      "826": 2.236283302307129,
      "827": -2.9359476566314697,
      "828": -1.174944519996643,
      "829": -1.6970586776733398,
      "830": -0.5907467007637024,
      "831": -3.6461329460144043,
      "832": 3.6216700077056885,
      "833": 0.33392325043678284,
      "834": -0.1414896845817566,
      "835": 7.493743896484375,
      "836": -4.764073848724365,
      "837": -2.1537771224975586,
      "838": -0.4726243317127228,
      "839": 4.092986583709717,
      "840": -0.36424413323402405,
      "841": -2.950814962387085,
      "842": 0.4511233866214752,
      "843": 1.1802302598953247,
      "844": 0.6360138654708862,
      "845": -2.973942518234253,
      "846": 2.0808722972869873,
      "847": -4.9388556480407715,
      "848": 3.601976156234741,
      "849": 0.33556389808654785,
      "850": -2.750295400619507,
      "851": -2.1102423667907715,
      "852": 5.983670234680176,
      "853": 0.96714186668396,
      "854": 1.459600806236267,
      "855": -3.4713668823242188,
      "856": -3.626640558242798,
      "857": -0.5897419452667236,
      "858": 1.9547290802001953,
      "859": -0.28357234597206116,
      "860": -0.8759812116622925,
      "861": -1.574303150177002,
      "862": 0.39272746443748474,
      "863": 1.1144007444381714,
      "864": -0.0402584969997406,
      "865": 3.1178910732269287,
      "866": -3.2402396202087402,
      "867": -2.5224432945251465,
      "868": 4.272949695587158,
      "869": -3.3073723316192627,
      "870": 5.515393257141113,
      "871": -4.217674732208252,
      "872": 9.981900215148926,
      "873": -2.1235415935516357,
      "874": -0.13379362225532532,
      "875": -1.8836430311203003,
      "876": -3.7828197479248047,
      "877": 0.8678667545318604,
      "878": 5.011752128601074,
      "879": 2.0594193935394287,
      "880": 6.899413585662842,
      "881": -0.25680044293403625,
      "882": -5.674795150756836,
      "883": 3.2398264408111572,
      "884": -6.266978740692139,
      "885": 6.792547702789307,
      "886": -2.209313154220581,
      "887": 0.7548258304595947,
      "888": 0.7256838083267212,
      "889": 0.6513051986694336,
      "890": 5.799073219299316,
      "891": 1.9432262182235718,
      "892": -3.7505741119384766,
      "893": 0.02263505384325981,
      "894": 2.233488082885742,
      "895": -0.21776044368743896,
      "896": -4.556659698486328,
      "897": -0.3032689690589905,
      "898": -0.9978362917900085,
      "899": -2.82110595703125,
      "900": 3.5765373706817627,
      "901": 0.2213396579027176,
      "902": -5.079112529754639,
      "903": -3.2410833835601807,
      "904": -3.2614824771881104,
      "905": -0.45417657494544983,
      "906": 3.181265115737915,
      "907": -0.3038572669029236,
      "908": -2.325101613998413,
      "909": 1.337196946144104,
      "910": 5.585184574127197,
      "911": -2.777094602584839,
      "912": -1.5926241874694824,
      "913": 1.910634994506836,
      "914": 2.4483015537261963,
      "915": -7.420633792877197,
      "916": -1.4423657655715942,
      "917": -4.232595443725586,
      "918": -6.777554035186768,
      "919": 3.881046772003174,
      "920": -0.9357706904411316,
      "921": 2.940493106842041,
      "922": 2.303906202316284,
      "923": 1.7367042303085327,
      "924": 0.7299259901046753,
      "925": -3.207721710205078,
      "926": -4.389100074768066,
      "927": -2.739173173904419,
      "928": -0.6665626168251038,
      "929": -0.18732932209968567,
      "930": -2.6072967052459717,
      "931": -3.086500406265259,
      "932": 0.037065539509058,
      "933": 2.0149993896484375,
      "934": -1.0966159105300903,
      "935": -0.40293753147125244,
      "936": -1.1637611389160156,
      "937": -0.5885758996009827,
      "938": 1.8636019229888916,
      "939": 7.496755123138428,
      "940": -2.0531821250915527,
      "941": -1.7631360292434692,
      "942": 1.8648104667663574,
      "943": -2.2511866092681885,
      "944": 1.1063154935836792,
      "945": -2.3271405696868896,
      "946": -1.608249545097351,
      "947": 2.4706168174743652,
      "948": 2.248743772506714,
      "949": -0.9439264535903931,
      "950": -1.0102216005325317,
      "951": -1.1722581386566162,
      "952": -0.6536765694618225,
      "953": 2.5165698528289795,
      "954": 0.9584718346595764,
      "955": -0.5224740505218506,
      "956": -1.883103609085083,
      "957": 2.4725089073181152,
      "958": 0.5690728425979614,
      "959": 0.4449402391910553,
      "960": 2.787036657333374,
      "961": -0.16613821685314178,
      "962": 1.1219147443771362,
      "963": -0.06708087027072906,
      "964": -1.477150559425354,
      "965": -1.5084651708602905,
      "966": 3.2237887382507324,
      "967": -6.132953643798828,
      "968": -0.729743242263794,
      "969": -6.591997146606445,
      "970": -1.3607791662216187,
      "971": -8.753009796142578,
      "972": -6.606069564819336,
      "973": -4.582087516784668,
      "974": 2.1610074043273926,
      "975": 1.9153512716293335,
      "976": -8.049342155456543,
      "977": 0.4370976686477661,
      "978": 1.6095787286758423,
      "979": -3.849112033843994,
      "980": 1.4654133319854736,
      "981": 1.2747387886047363,
      "982": 0.1683526188135147,
      "983": -0.10144608467817307,
      "984": -0.36501044034957886,
      "985": -9.908475875854492,
      "986": -0.5762341618537903,
      "987": -2.089277982711792,
      "988": 0.29853495955467224,
      "989": 6.675753116607666,
      "990": 0.8276795148849487,
      "991": 0.43834489583969116,
      "992": 2.770443916320801,
      "993": -0.26918381452560425,
      "994": 8.223139762878418,
      "995": 0.14973488450050354,
      "996": -0.5429408550262451,
      "997": -8.360753059387207,
      "998": 3.735799551010132,
      "999": -11.524445533752441,
      "1000": -6.924220085144043,
      "1001": -1.5651638507843018,
      "1002": -0.340759813785553,
      "1003": 2.219204902648926,
      "1004": 0.23248189687728882,
      "1005": 10.023383140563965,
      "1006": 4.941467761993408,
      "1007": -4.289624214172363,
      "1008": 5.016846656799316,
      "1009": -1.3911558389663696,
      "1010": 2.6356701850891113,
      "1011": 2.759207248687744,
      "1012": 2.3096163272857666,
      "1013": -1.8855210542678833,
      "1014": -4.988374710083008,
      "1015": -1.3108434677124023,
      "1016": -2.8956668376922607,
      "1017": 4.09920072555542,
      "1018": 2.171056032180786,
      "1019": 3.703395366668701,
      "1020": -2.487760543823242,
      "1021": 5.4154534339904785,
      "1022": 6.389586448669434,
      "1023": 6.8520307540893555,
      "1024": -0.37207093834877014,
      "1025": 0.9724289178848267,
      "1026": -5.137299060821533,
      "1027": -2.253385066986084,
      "1028": 4.763004779815674,
      "1029": 3.255964517593384,
      "1030": 2.410529375076294,
      "1031": 0.8301931619644165,
      "1032": -7.875041484832764,
      "1033": 3.807706832885742,
      "1034": 3.367347478866577,
      "1035": -6.7254157066345215,
      "1036": -4.95422887802124,
      "1037": 5.916012763977051,
      "1038": 2.4604454040527344,
      "1039": -1.5034137964248657,
      "1040": 1.4861454963684082,
      "1041": 2.5575764179229736,
      "1042": 2.0845096111297607,
      "1043": 3.7382376194000244,
      "1044": -0.4959658682346344,
      "1045": -4.594563007354736,
      "1046": 1.786576747894287,
      "1047": -1.4353384971618652,
      "1048": -2.2027406692504883,
      "1049": 1.2287834882736206,
      "1050": -2.1134085655212402,
      "1051": -5.979753494262695,
      "1052": -9.421957015991211,
      "1053": -5.418635845184326,
      "1054": -6.985435485839844,
      "1055": 1.5739803314208984,
      "1056": -8.953129768371582,
      "1057": -2.108950614929199,
      "1058": -0.5996443629264832,
      "1059": 3.8378260135650635,
      "1060": -3.9656684398651123,
      "1061": 1.8536335229873657,
      "1062": -2.590036392211914,
      "1063": -2.0009617805480957,
      "1064": -1.2648632526397705,
      "1065": 8.7307767868042,
      "1066": 0.4321011006832123,
      "1067": -3.1183254718780518,
      "1068": -7.841672897338867,
      "1069": -3.600159168243408,
      "1070": -0.5565415620803833,
      "1071": -2.3044803142547607,
      "1072": -3.988708972930908,
      "1073": 5.30930233001709,
      "1074": 3.0944080352783203,
      "1075": -5.093399524688721,
      "1076": 15.17162799835205,
      "1077": 0.18898209929466248,
      "1078": -4.031002521514893,
      "1079": -0.1203368753194809,
      "1080": -5.441047191619873,
      "1081": -3.10493540763855,
      "1082": -3.753779888153076,
      "1083": -1.348453402519226,
      "1084": -3.415365219116211,
      "1085": 10.577341079711914,
      "1086": 13.926239013671875,
      "1087": 4.270554542541504,
      "1088": -4.185610771179199,
      "1089": 9.089882850646973,
      "1090": -8.454740524291992,
      "1091": 4.804452896118164,
      "1092": 0.3902182877063751,
      "1093": 2.81472110748291,
      "1094": -2.6942880153656006,
      "1095": -8.548805236816406,
      "1096": 1.521140456199646,
      "1097": 0.31072720885276794,
      "1098": -11.514782905578613,
      "1099": 4.883730411529541,
      "1100": -5.094398498535156,
      "1101": 3.957406520843506,
      "1102": 1.7815231084823608,
      "1103": 9.563019752502441,
      "1104": 8.719202995300293,
      "1105": 1.590222954750061,
      "1106": -1.5742501020431519,
      "1107": 7.307170867919922,
      "1108": 0.8529026508331299,
      "1109": 5.655998229980469,
      "1110": 1.9557322263717651,
      "1111": -2.1931304931640625,
      "1112": 3.489699125289917,
      "1113": -4.311023235321045,
      "1114": 1.846580982208252,
      "1115": 13.939437866210938,
      "1116": -5.452763080596924,
      "1117": 2.9010937213897705,
      "1118": -3.4383819103240967,
      "1119": 0.2854081094264984,
      "1120": -6.755974292755127,
      "1121": 15.82674503326416,
      "1122": -8.488600730895996,
      "1123": -1.5853402614593506,
      "1124": 0.48102590441703796,
      "1125": -0.198857381939888,
      "1126": 2.6434099674224854,
      "1127": -0.06980698555707932,
      "1128": 7.395442962646484,
      "1129": -4.770319938659668,
      "1130": 1.7898131608963013,
      "1131": -8.488842010498047,
      "1132": -2.4677441120147705,
      "1133": -4.934901714324951,
      "1134": 4.132793426513672,
      "1135": 1.586656928062439,
      "1136": -5.424360275268555,
      "1137": -8.300848960876465,
      "1138": -3.002631425857544,
      "1139": 1.6522687673568726,
      "1140": 0.756157398223877,
      "1141": 5.391779899597168,
      "1142": 3.295314073562622,
      "1143": 0.8397420644760132,
      "1144": -1.2358033657073975,
      "1145": 0.551540732383728,
      "1146": -0.8942061066627502,
      "1147": -5.435047149658203,
      "1148": 4.9709792137146,
      "1149": 6.427346229553223,
      "1150": 3.5893852710723877,
      "1151": -6.432241439819336,
      "1152": -0.6374092698097229,
      "1153": -0.8154895305633545,
      "1154": -2.259422540664673,
      "1155": 4.859277248382568,
      "1156": 4.473915100097656,
      "1157": 6.710646629333496,
      "1158": -2.9639439582824707,
      "1159": -4.434433937072754,
      "1160": 3.678356885910034,
      "1161": 4.834491729736328,
      "1162": 4.505276679992676,
      "1163": -3.4106369018554688,
      "1164": -3.4472005367279053,
      "1165": -5.789871692657471,
      "1166": -4.640144348144531,
      "1167": 1.8639196157455444,
      "1168": -3.9267196655273438,
      "1169": 2.127617120742798,
      "1170": 0.6412182450294495,
      "1171": 4.069107532501221,
      "1172": -0.14364373683929443,
      "1173": 3.663550615310669,
      "1174": -4.066207408905029,
      "1175": -6.979889869689941,
      "1176": -1.0774946212768555,
      "1177": 0.8161219954490662,
      "1178": -6.524621963500977,
      "1179": 1.6054171323776245,
      "1180": -0.15931211411952972,
      "1181": 0.1597539335489273,
      "1182": 0.0794890895485878,
      "1183": 4.359706401824951,
      "1184": -1.121485710144043,
      "1185": -3.4795360565185547,
      "1186": -2.5771734714508057,
      "1187": -0.17541547119617462,
      "1188": 3.271846055984497,
      "1189": 1.4921470880508423,
      "1190": -1.527866244316101,
      "1191": 0.34574568271636963,
      "1192": 2.958861827850342,
      "1193": -3.9206387996673584,
      "1194": -0.046108756214380264,
      "1195": -1.834140419960022,
      "1196": -1.6027140617370605,
      "1197": -1.1297259330749512,
      "1198": -1.6996532678604126,
      "1199": 0.9913797974586487,
      "1200": 1.7996128797531128,
      "1201": -1.9676028490066528,
      "1202": 0.575892448425293,
      "1203": 4.851171493530273,
      "1204": -1.77323317527771,
      "1205": -3.367659568786621,
      "1206": -1.6487784385681152,
      "1207": 1.0738270282745361,
      "1208": -3.225295305252075,
      "1209": 2.5637319087982178,
      "1210": -3.340735912322998,
      "1211": 4.47279167175293,
      "1212": 5.491382122039795,
      "1213": 3.285369634628296,
      "1214": -2.191871166229248,
      "1215": 1.238180160522461,
      "1216": -5.671590328216553,
      "1217": 3.295257329940796,
      "1218": 7.395440101623535,
      "1219": 1.667198896408081,
      "1220": -4.752708911895752,
      "1221": 7.974173545837402,
      "1222": 2.9019951820373535,
      "1223": 10.570866584777832,
      "1224": 0.7554565668106079,
      "1225": 5.74183988571167,
      "1226": -2.607089042663574,
      "1227": 4.093143463134766,
      "1228": -0.33416661620140076,
      "1229": -3.6966679096221924,
      "1230": 3.167541265487671,
      "1231": 5.136307716369629,
      "1232": 6.297883033752441,
      "1233": 0.06423026323318481,
      "1234": -0.11941113322973251,
      "1235": -9.01856517791748,
      "1236": -1.627057433128357,
      "1237": -4.7958855628967285,
      "1238": -5.444022178649902,
      "1239": 9.509434700012207,
      "1240": 3.5976192951202393,
      "1241": 8.508902549743652,
      "1242": 1.2255765199661255,
      "1243": 0.6866085529327393,
      "1244": 0.34918275475502014,
      "1245": 2.2547245025634766,
      "1246": 3.496354818344116,
      "1247": -4.509253978729248,
      "1248": -3.821561574935913,
      "1249": -0.06167859584093094,
      "1250": -7.360079288482666,
      "1251": 3.2223052978515625,
      "1252": -4.628897190093994,
      "1253": -2.024129629135132,
      "1254": -6.9012532234191895,
      "1255": -0.44644081592559814,
      "1256": -1.0238360166549683,
      "1257": -6.418038368225098,
      "1258": -0.2193516343832016,
      "1259": -3.2611353397369385,
      "1260": -1.5914814472198486,
      "1261": 6.690059661865234,
      "1262": -2.3242781162261963,
      "1263": -1.7731013298034668,
      "1264": -6.732730388641357,
      "1265": 4.181357383728027,
      "1266": -4.854776382446289,
      "1267": 5.880145072937012,
      "1268": 0.4638668894767761,
      "1269": 2.690145492553711,
      "1270": 8.181985855102539,
      "1271": 7.714115619659424,
      "1272": 12.712298393249512,
      "1273": 5.617011547088623,
      "1274": -2.208726644515991,
      "1275": -3.878847599029541,
      "1276": 7.218344211578369,
      "1277": -2.067248582839966,
      "1278": 2.9880192279815674,
      "1279": 1.6546918153762817,
      "1280": -5.41392707824707,
      "1281": 5.875535011291504,
      "1282": 1.889614462852478,
      "1283": 8.285613059997559,
      "1284": -4.670618057250977,
      "1285": 0.34350451827049255,
      "1286": -9.686686515808105,
      "1287": 11.374480247497559,
      "1288": -4.7091264724731445,
      "1289": 10.284399032592773,
      "1290": -4.002359390258789,
      "1291": 5.928655624389648,
      "1292": -14.978416442871094,
      "1293": -2.9511499404907227,
      "1294": -8.209258079528809,
      "1295": 9.8934907913208,
      "1296": 4.9734272956848145,
      "1297": -9.162035942077637,
      "1298": -8.778315544128418,
      "1299": -11.429459571838379,
      "1300": 2.319011688232422,
      "1301": -2.8479573726654053,
      "1302": 4.345354080200195,
      "1303": -1.9696929454803467,
      "1304": -2.4233322143554688,
      "1305": -3.0107295513153076,
      "1306": -0.5262967348098755,
      "1307": 0.007610708475112915,
      "1308": -5.563477993011475,
      "1309": -0.03220614790916443,
      "1310": -3.072601795196533,
      "1311": -0.9201733469963074,
      "1312": -1.3368804454803467,
      "1313": -1.655447006225586,
      "1314": 2.8371925354003906,
      "1315": -1.8312128782272339,
      "1316": -0.32982131838798523,
      "1317": 1.5915184020996094,
      "1318": 5.267632007598877,
      "1319": -6.118159294128418,
      "1320": 1.2837988138198853,
      "1321": -3.830622434616089,
      "1322": -0.34744980931282043,
      "1323": -1.141265630722046,
      "1324": -3.950334310531616,
      "1325": 0.36040112376213074,
      "1326": 0.957632303237915,
      "1327": -1.204836368560791,
      "1328": 1.6091053485870361,
      "1329": -1.5741217136383057,
      "1330": -0.8796395659446716,
      "1331": -4.726363182067871,
      "1332": -2.86812424659729,
      "1333": -10.329596519470215,
      "1334": -6.929734230041504,
      "1335": 0.5950841903686523,
      "1336": 1.8163533210754395,
      "1337": 4.968493938446045,
      "1338": 2.4288055896759033,
      "1339": 5.756300449371338,
      "1340": 0.1132156178355217,
      "1341": 1.728416085243225,
      "1342": -2.803630828857422,
      "1343": -2.9955649375915527,
      "1344": 0.9175188541412354,
      "1345": 2.0136778354644775,
      "1346": -1.6413154602050781,
      "1347": -1.4975003004074097,
      "1348": -0.11392757296562195,
      "1349": -1.0649231672286987,
      "1350": -1.634138822555542,
      "1351": 0.007811711635440588,
      "1352": -4.271286964416504,
      "1353": 1.2405816316604614,
      "1354": 3.4448325634002686,
      "1355": -0.5035836100578308,
      "1356": -1.001461148262024,
      "1357": 4.204651355743408,
      "1358": -0.5216757655143738,
      "1359": 0.18409991264343262,
      "1360": 0.5528148412704468,
      "1361": -1.077627182006836,
      "1362": -2.682380199432373,
      "1363": -0.965192973613739,
      "1364": 3.278209924697876,
      "1365": 2.103130340576172,
      "1366": -0.7795729041099548,
      "1367": -0.43998804688453674,
      "1368": -1.6385921239852905,
      "1369": 0.3715819716453552,
      "1370": 1.3543877601623535,
      "1371": -1.5817815065383911,
      "1372": -2.843104362487793,
      "1373": 1.119214653968811,
      "1374": 1.398274302482605,
      "1375": 0.7572264075279236,
      "1376": -2.4158449172973633,
      "1377": 2.411658763885498,
      "1378": 0.6378836631774902,
      "1379": 1.1649341583251953,
      "1380": 3.9819717407226562,
      "1381": -0.6020188331604004,
      "1382": -0.538784384727478,
      "1383": -1.8405832052230835,
      "1384": -2.955127477645874,
      "1385": -1.197925329208374,
      "1386": 2.8022608757019043,
      "1387": 7.142073154449463,
      "1388": -2.3271467685699463,
      "1389": -0.07380780577659607,
      "1390": 4.660303115844727,
      "1391": 5.560299873352051,
      "1392": 0.19581958651542664,
      "1393": 11.653964042663574,
      "1394": -0.05566413328051567,
      "1395": 0.8828360438346863,
      "1396": 0.559983491897583,
      "1397": -6.594240665435791,
      "1398": -2.3020715713500977,
      "1399": 2.7028415203094482,
      "1400": 4.74480676651001,
      "1401": 2.431575059890747,
      "1402": 1.2064287662506104,
      "1403": -7.399867057800293,
      "1404": -4.308020114898682,
      "1405": -1.8972634077072144,
      "1406": 10.780402183532715,
      "1407": -3.518536329269409,
      "1408": 5.9183526039123535,
      "1409": 3.7881860733032227,
      "1410": -1.9099347591400146,
      "1411": 4.983856201171875,
      "1412": 6.928264617919922,
      "1413": -1.0963703393936157,
      "1414": -1.6037068367004395,
      "1415": -2.524240016937256,
      "1416": -3.231128215789795,
      "1417": -2.3081066608428955,
      "1418": 2.6516852378845215,
      "1419": -0.3762490451335907,
      "1420": 5.4415364265441895,
      "1421": 10.549184799194336,
      "1422": 6.1022772789001465,
      "1423": 3.693138599395752,
      "1424": 2.982936143875122,
      "1425": 9.462328910827637,
      "1426": 1.9471745491027832,
      "1427": -2.881159782409668,
      "1428": 2.3201775550842285,
      "1429": 10.189193725585938,
      "1430": -3.374760627746582,
      "1431": 5.657429218292236,
      "1432": -5.860360145568848,
      "1433": 6.35441780090332,
      "1434": 2.8035147190093994,
      "1435": -3.651906967163086,
      "1436": -4.076173782348633,
      "1437": -4.2624311447143555,
      "1438": -3.2094345092773438,
      "1439": 0.2512749135494232,
      "1440": -1.0443384647369385,
      "1441": 1.6893775463104248,
      "1442": -6.301358222961426,
      "1443": -5.948311805725098,
      "1444": 4.556069850921631,
      "1445": -0.5182830095291138,
      "1446": -4.208592891693115,
      "1447": 3.128922462463379,
      "1448": -0.11853714287281036,
      "1449": 1.4899752140045166,
      "1450": 1.968632459640503,
      "1451": 0.6005311608314514,
      "1452": 7.311020851135254,
      "1453": 3.4475905895233154,
      "1454": 3.8863775730133057,
      "1455": 1.9754844903945923,
      "1456": 2.7228686809539795,
      "1457": -5.646124362945557,
      "1458": -0.8881317377090454,
      "1459": -4.34664249420166,
      "1460": 1.364884614944458,
      "1461": -0.6641870141029358,
      "1462": 4.6644086837768555,
      "1463": -3.9908764362335205,
      "1464": -5.056020259857178,
      "1465": 2.202868938446045,
      "1466": -2.389103651046753,
      "1467": 1.511096477508545,
      "1468": 4.948288917541504,
      "1469": 2.757317304611206,
      "1470": -2.1439778804779053,
      "1471": 12.387202262878418,
      "1472": 1.399279236793518,
      "1473": 6.648115158081055,
      "1474": -0.46083980798721313,
      "1475": 4.808108329772949,
      "1476": -7.311729431152344,
      "1477": 5.915947437286377,
      "1478": -4.282952308654785,
      "1479": 0.603010892868042,
      "1480": 1.3431611061096191,
      "1481": 0.25688743591308594,
      "1482": -0.35253819823265076,
      "1483": -1.7159860134124756,
      "1484": -3.7136476039886475,
      "1485": -3.6723992824554443,
      "1486": 8.220621109008789,
      "1487": 2.2935853004455566,
      "1488": -1.908759593963623,
      "1489": 4.949024677276611,
      "1490": 1.3120667934417725,
      "1491": 3.1602890491485596,
      "1492": -0.7870606184005737,
      "1493": -0.5371217727661133,
      "1494": 1.3670095205307007,
      "1495": -0.29840633273124695,
      "1496": -2.314087390899658,
      "1497": -1.4985175132751465,
      "1498": 1.6809866428375244,
      "1499": -2.9505627155303955,
      "1500": -0.4674880802631378,
      "1501": -0.14733724296092987,
      "1502": -2.1234776973724365,
      "1503": 1.07195246219635,
      "1504": 2.857239007949829,
      "1505": 1.006746530532837,
      "1506": -1.097892165184021,
      "1507": -3.2251574993133545,
      "1508": -5.968430995941162,
      "1509": -2.6760921478271484,
      "1510": -0.2897287607192993,
      "1511": -4.255841255187988,
      "1512": 3.9058480262756348,
      "1513": -6.213358402252197,
      "1514": -2.1669020652770996,
      "1515": 1.604321002960205,
      "1516": 2.642615556716919,
      "1517": 2.7464072704315186,
      "1518": 6.306943416595459,
      "1519": -4.7083635330200195,
      "1520": -9.14231014251709,
      "1521": 0.5430470108985901,
      "1522": -1.2033740282058716,
      "1523": 0.6538864970207214,
      "1524": -1.1557539701461792,
      "1525": 3.11787748336792,
      "1526": 3.0250213146209717,
      "1527": 3.638491630554199,
      "1528": 0.0773293524980545,
      "1529": -6.412492275238037,
      "1530": -2.519909143447876,
      "1531": -0.5682680606842041,
      "1532": -9.944266319274902,
      "1533": 4.090111255645752,
      "1534": 5.552772045135498,
      "1535": 5.284434795379639,
      "1536": -4.020837783813477,
      "1537": 0.8057923913002014,
      "1538": 0.781398594379425,
      "1539": -3.2427823543548584,
      "1540": -1.0898123979568481,
      "1541": 2.0871524810791016,
      "1542": 0.6327028870582581,
      "1543": -2.798198699951172,
      "1544": -7.617098808288574,
      "1545": 3.0197954177856445,
      "1546": -3.5901262760162354,
      "1547": 2.3239943981170654,
      "1548": 3.6508195400238037,
      "1549": 0.24795220792293549,
      "1550": -2.084153890609741,
      "1551": -1.466165542602539,
      "1552": -0.5528588891029358,
      "1553": 2.0342860221862793,
      "1554": 0.6314526796340942,
      "1555": -0.6279358863830566,
      "1556": -0.2527768313884735,
      "1557": -0.38527581095695496,
      "1558": -4.286925792694092,
      "1559": -5.526829719543457,
      "1560": -9.663262367248535,
      "1561": -0.46062853932380676,
      "1562": -0.5572354197502136,
      "1563": 3.1144931316375732,
      "1564": 1.5718719959259033,
      "1565": -0.1583017110824585,
      "1566": 1.1387224197387695,
      "1567": -1.303861379623413,
      "1568": -0.6545639038085938,
      "1569": 0.12814217805862427,
      "1570": 4.502037525177002,
      "1571": -1.7742977142333984,
      "1572": 0.8229467868804932,
      "1573": -1.4358903169631958,
      "1574": 3.628859758377075,
      "1575": -2.5868189334869385,
      "1576": -2.3123714923858643,
      "1577": 1.1308188438415527,
      "1578": 0.7792332768440247,
      "1579": -1.5912196636199951,
      "1580": 2.273726224899292,
      "1581": -3.472731351852417,
      "1582": -1.292628288269043,
      "1583": 5.073457717895508,
      "1584": 5.565829277038574,
      "1585": -0.7140679359436035,
      "1586": -1.3190813064575195,
      "1587": 0.6031674146652222,
      "1588": -3.56406569480896,
      "1589": 1.432964563369751,
      "1590": 4.763401508331299,
      "1591": 3.6862986087799072,
      "1592": -0.23768113553524017,
      "1593": 3.9881505966186523,
      "1594": -7.707945823669434,
      "1595": -0.5445922613143921,
      "1596": 3.589298963546753,
      "1597": -0.06119978427886963,
      "1598": -0.7992265820503235,
      "1599": 4.4841227531433105,
      "1600": 3.1957404613494873,
      "1601": -4.902342796325684,
      "1602": 0.6326338052749634,
      "1603": -2.240816354751587,
      "1604": 5.81602668762207,
      "1605": -0.7422661781311035,
      "1606": -3.9640815258026123,
      "1607": -0.4123595654964447,
      "1608": -4.863509178161621,
      "1609": -1.678659439086914,
      "1610": 3.524230718612671,
      "1611": 7.5628790855407715,
      "1612": -0.9227321147918701,
      "1613": -7.477493762969971,
      "1614": 1.8397295475006104,
      "1615": -2.6309762001037598,
      "1616": -1.3952046632766724,
      "1617": -7.629199981689453,
      "1618": -2.495901346206665,
      "1619": 3.1370768547058105,
      "1620": -5.502351760864258,
      "1621": 5.221423625946045,
      "1622": 1.3004732131958008,
      "1623": -4.037858486175537,
      "1624": 7.827112674713135,
      "1625": -3.8884243965148926,
      "1626": 4.509829044342041,
      "1627": 1.6816500425338745,
      "1628": 3.0254998207092285,
      "1629": -10.840968132019043,
      "1630": -0.8555628657341003,
      "1631": -5.702595233917236,
      "1632": -2.5560288429260254,
      "1633": -0.7271294593811035,
      "1634": 2.7635881900787354,
      "1635": 6.442901134490967,
      "1636": 1.276234745979309,
      "1637": -3.651325225830078,
      "1638": 5.007693290710449,
      "1639": 3.1707844734191895,
      "1640": 0.8502671122550964,
      "1641": -0.05909915640950203,
      "1642": 1.6212055683135986,
      "1643": 3.941518783569336,
      "1644": -4.140091419219971,
      "1645": 6.753414154052734,
      "1646": -3.565431833267212,
      "1647": 6.051576137542725,
      "1648": -0.6488972902297974,
      "1649": 2.9384007453918457,
      "1650": 12.554377555847168,
      "1651": -0.12553416192531586,
      "1652": -0.047877732664346695,
      "1653": -4.374126434326172,
      "1654": -2.258445978164673,
      "1655": -2.950284004211426,
      "1656": -3.6116693019866943,
      "1657": -1.003577470779419,
      "1658": 4.256388187408447,
      "1659": -1.8059756755828857,
      "1660": 4.01125431060791,
      "1661": 3.6993939876556396,
      "1662": -7.419774055480957,
      "1663": 3.4971163272857666,
      "1664": 2.9283127784729004,
      "1665": -3.397024154663086,
      "1666": 1.6458388566970825,
      "1667": 0.8791384696960449,
      "1668": -4.207791328430176,
      "1669": -2.905151844024658,
      "1670": 7.11629581451416,
      "1671": 7.442312717437744,
      "1672": -3.8385908603668213,
      "1673": 2.5633926391601562,
      "1674": 6.264148712158203,
      "1675": -5.045954704284668,
      "1676": -0.5925769805908203,
      "1677": 1.9925814867019653,
      "1678": 0.517752468585968,
      "1679": -12.503422737121582,
      "1680": -0.1708124279975891,
      "1681": -3.9044785499572754,
      "1682": -2.6742913722991943,
      "1683": -1.445356845855713,
      "1684": -1.2012420892715454,
      "1685": 0.6993293166160583,
      "1686": -0.5847162008285522,
      "1687": 1.0994796752929688,
      "1688": -0.4672068953514099,
      "1689": 3.967829942703247,
      "1690": 0.9163730144500732,
      "1691": -2.174705982208252,
      "1692": 0.776150107383728,
      "1693": 0.6945058703422546,
      "1694": -0.0522296316921711,
      "1695": -0.43046072125434875,
      "1696": -1.3384703397750854,
      "1697": -2.102919578552246,
      "1698": -6.239680290222168,
      "1699": -0.9250296950340271,
      "1700": -0.21190284192562103,
      "1701": 0.6455723643302917,
      "1702": 0.5317280292510986,
      "1703": 0.8682246208190918,
      "1704": 3.880831718444824,
      "1705": -0.7542319297790527,
      "1706": 3.6596486568450928,
      "1707": 3.106982946395874,
      "1708": -0.3968828618526459,
      "1709": -1.7587682008743286,
      "1710": -0.7758789658546448,
      "1711": -6.0186357498168945,
      "1712": -1.1458592414855957,
      "1713": 2.2105727195739746,
      "1714": 0.3592563569545746,
      "1715": 2.2632904052734375,
      "1716": 1.7049689292907715,
      "1717": -0.1189851313829422,
      "1718": -4.464662075042725,
      "1719": -0.3177182972431183,
      "1720": -0.7910304069519043,
      "1721": -2.1985931396484375,
      "1722": -0.47068288922309875,
      "1723": -0.21549619734287262,
      "1724": -2.8052830696105957,
      "1725": -1.0377941131591797,
      "1726": -2.285505771636963,
      "1727": -1.8157696723937988,
      "1728": 2.150869607925415,
      "1729": -0.8215239644050598,
      "1730": -1.5484412908554077,
      "1731": 2.1450390815734863,
      "1732": 1.3764373064041138,
      "1733": 0.40695077180862427,
      "1734": 0.28150129318237305,
      "1735": -0.7889190912246704,
      "1736": 1.284921646118164,
      "1737": 0.14241330325603485,
      "1738": 2.219203233718872,
      "1739": 0.6427686214447021,
      "1740": -0.9713757634162903,
      "1741": 0.09868615120649338,
      "1742": -0.5948178172111511,
      "1743": -1.7329163551330566,
      "1744": -0.5966126322746277,
      "1745": 0.8662413954734802,
      "1746": 2.2136518955230713,
      "1747": -0.7524480819702148,
      "1748": -1.2058991193771362,
      "1749": 1.4787057638168335,
      "1750": -0.34132277965545654,
      "1751": -2.804190158843994,
      "1752": -1.019670009613037,
      "1753": -0.713181734085083,
      "1754": -0.5926798582077026,
      "1755": -0.16903740167617798,
      "1756": -1.7537569999694824,
      "1757": -1.1526139974594116,
      "1758": 1.5468395948410034,
      "1759": -0.12953780591487885,
      "1760": -3.3875467777252197,
      "1761": -4.124502182006836,
      "1762": -1.7102452516555786,
      "1763": 2.485919952392578,
      "1764": 0.020196866244077682,
      "1765": 0.012861741706728935,
      "1766": -0.018326453864574432,
      "1767": 0.018004482612013817,
      "1768": -0.028207313269376755,
      "1769": -0.017132116481661797,
      "1770": -0.027895288541913033,
      "1771": -0.02360505424439907,
      "1772": 0.0416639968752861,
      "1773": 0.043377894908189774,
      "1774": 0.024214640259742737,
      "1775": -0.00734750647097826,
      "1776": 0.027316071093082428,
      "1777": -0.02192734181880951,
      "1778": 0.005920336581766605,
      "1779": -0.0015311946626752615,
      "1780": -0.003926997538655996,
      "1781": 0.0008158785058185458,
      "1782": 0.034868475049734116,
      "1783": -0.0371842086315155,
      "1784": -0.033409085124731064,
      "1785": -0.0043837702833116055,
      "1786": -0.02570311352610588,
      "1787": -0.03615535795688629,
      "1788": 0.012524113990366459,
      "1789": -0.004011920187622309,
      "1790": -0.03892471641302109,
      "1791": -0.042775530368089676,
      "1792": -0.032000765204429626,
      "1793": -0.005949928425252438,
      "1794": 0.03260602056980133,
      "1795": -0.015933191403746605,
      "1796": -0.03065883368253708,
      "1797": 0.0054117292165756226,
      "1798": -0.016841504722833633,
      "1799": -0.043867480009794235,
      "1800": -0.004139383789151907,
      "1801": -0.007683001458644867,
      "1802": 0.014744367450475693,
      "1803": 0.03077150508761406,
      "1804": -0.007657406851649284,
      "1805": 0.020703906193375587
    }
  },
  "hiddenLayers": [
    {
      "inputMatrix": {
        "rows": 20,
        "columns": 42,
        "weights": {
          "0": -0.3372442424297333,
          "1": 2.2519965171813965,
          "2": -1.146872878074646,
          "3": -0.10882371664047241,
          "4": -0.1995498090982437,
          "5": 0.39318811893463135,
          "6": -2.85286545753479,
          "7": -2.5026731491088867,
          "8": 0.9391435980796814,
          "9": 1.1667802333831787,
          "10": -0.8698639869689941,
          "11": -1.1694049835205078,
          "12": -1.521733283996582,
          "13": -0.5863239765167236,
          "14": -0.08666219562292099,
          "15": 1.5636464357376099,
          "16": 0.38167887926101685,
          "17": -0.09316801279783249,
          "18": 0.5264320969581604,
          "19": 0.18883013725280762,
          "20": 2.157599449157715,
          "21": -0.5369568467140198,
          "22": -3.9760539531707764,
          "23": 1.7822036743164062,
          "24": -0.7377566695213318,
          "25": 1.3863564729690552,
          "26": -1.331553339958191,
          "27": -1.0857256650924683,
          "28": -2.891310691833496,
          "29": 1.6991782188415527,
          "30": 1.20278000831604,
          "31": -1.7699170112609863,
          "32": -1.2996461391448975,
          "33": 0.32776182889938354,
          "34": 1.8983373641967773,
          "35": 1.705771803855896,
          "36": 0.8187062740325928,
          "37": 0.5152426362037659,
          "38": -2.1987318992614746,
          "39": -1.6641465425491333,
          "40": -0.9649853110313416,
          "41": 1.151734709739685,
          "42": 1.6954238414764404,
          "43": 0.9773251414299011,
          "44": 1.4859142303466797,
          "45": -1.1906880140304565,
          "46": 1.3970708847045898,
          "47": 0.46716827154159546,
          "48": 0.7478436827659607,
          "49": 0.08305545896291733,
          "50": -0.5783991813659668,
          "51": -1.095522403717041,
          "52": -0.4686024785041809,
          "53": 0.8722949624061584,
          "54": -1.4081758260726929,
          "55": -0.4597765803337097,
          "56": 0.8098466992378235,
          "57": 0.5244739055633545,
          "58": -0.2535057067871094,
          "59": -0.5733364224433899,
          "60": -1.8068926334381104,
          "61": 0.4967897832393646,
          "62": 0.025929400697350502,
          "63": -0.8283957242965698,
          "64": 1.4911655187606812,
          "65": 0.8162070512771606,
          "66": -3.9051902294158936,
          "67": 4.17656135559082,
          "68": 2.7379701137542725,
          "69": -0.7925682663917542,
          "70": -1.3153245449066162,
          "71": -0.07471752911806107,
          "72": 1.568907380104065,
          "73": -2.807546377182007,
          "74": 0.3240029215812683,
          "75": -0.12312434613704681,
          "76": 2.0151259899139404,
          "77": 0.3958524465560913,
          "78": -0.09424807131290436,
          "79": 1.0758968591690063,
          "80": 2.2956438064575195,
          "81": 0.6353609561920166,
          "82": 2.5652875900268555,
          "83": -0.7219027280807495,
          "84": -1.7191694974899292,
          "85": 0.8007262945175171,
          "86": -0.25542914867401123,
          "87": 0.5450878739356995,
          "88": -0.7424188852310181,
          "89": -2.547917127609253,
          "90": -1.2907295227050781,
          "91": 1.2862547636032104,
          "92": -0.8984636068344116,
          "93": -2.670180559158325,
          "94": 1.093468427658081,
          "95": 0.2377009242773056,
          "96": -0.6827689409255981,
          "97": -1.7800672054290771,
          "98": -1.1005927324295044,
          "99": -0.03609728068113327,
          "100": 2.340916395187378,
          "101": 0.07333409041166306,
          "102": 1.3533855676651,
          "103": 1.5919691324234009,
          "104": -1.9253727197647095,
          "105": -0.242466539144516,
          "106": -2.092822551727295,
          "107": -0.9643874168395996,
          "108": 0.3771597743034363,
          "109": -3.067655563354492,
          "110": 1.458138108253479,
          "111": -0.24041762948036194,
          "112": 2.564568281173706,
          "113": -2.099090337753296,
          "114": -0.8841134905815125,
          "115": 0.6201412081718445,
          "116": -0.9608967900276184,
          "117": -1.5940792560577393,
          "118": -0.2345277965068817,
          "119": -1.852136254310608,
          "120": 0.4811114966869354,
          "121": 0.8845389485359192,
          "122": -1.270769476890564,
          "123": 2.2560136318206787,
          "124": -0.3519226014614105,
          "125": 0.2738058865070343,
          "126": 1.1691827774047852,
          "127": 4.654362201690674,
          "128": -0.888881504535675,
          "129": 2.1302719116210938,
          "130": -1.8283694982528687,
          "131": -0.24479231238365173,
          "132": 0.9956957101821899,
          "133": 1.4071298837661743,
          "134": 0.9938326478004456,
          "135": 1.464539647102356,
          "136": 3.263167142868042,
          "137": 1.0074834823608398,
          "138": 0.9484710097312927,
          "139": 2.372563362121582,
          "140": -1.8528915643692017,
          "141": -2.2971351146698,
          "142": 2.3518149852752686,
          "143": 3.1922106742858887,
          "144": 1.970366358757019,
          "145": -1.8965497016906738,
          "146": 3.9505727291107178,
          "147": -0.16139772534370422,
          "148": 0.4001077115535736,
          "149": -0.5929281115531921,
          "150": 2.3017947673797607,
          "151": 0.7812793850898743,
          "152": -1.697256326675415,
          "153": -1.0393389463424683,
          "154": -0.7279556393623352,
          "155": -0.03097655065357685,
          "156": 0.5659053325653076,
          "157": 2.680342674255371,
          "158": 2.395343065261841,
          "159": 0.13452742993831635,
          "160": -0.44691041111946106,
          "161": 1.5887203216552734,
          "162": 0.5782001614570618,
          "163": 2.131178617477417,
          "164": -2.752082347869873,
          "165": -1.624624490737915,
          "166": -0.2610958218574524,
          "167": 2.4907400608062744,
          "168": -1.2324113845825195,
          "169": -0.7977542877197266,
          "170": 0.35427847504615784,
          "171": -0.3986953794956207,
          "172": 1.5825321674346924,
          "173": -1.3222928047180176,
          "174": -3.1324222087860107,
          "175": -0.46996739506721497,
          "176": -1.2249358892440796,
          "177": -1.6528739929199219,
          "178": -3.6021037101745605,
          "179": 1.137778639793396,
          "180": -0.5771385431289673,
          "181": -1.8066632747650146,
          "182": 0.3766166567802429,
          "183": 1.9047060012817383,
          "184": -2.3532423973083496,
          "185": 1.396073341369629,
          "186": 1.4813179969787598,
          "187": 0.051884621381759644,
          "188": 2.571225881576538,
          "189": -3.3944926261901855,
          "190": -2.9476561546325684,
          "191": 1.5340135097503662,
          "192": -1.5851848125457764,
          "193": 2.167123317718506,
          "194": -0.39477190375328064,
          "195": -1.21632719039917,
          "196": 0.34298819303512573,
          "197": 2.364499807357788,
          "198": -1.0851927995681763,
          "199": -2.3437297344207764,
          "200": 1.9448649883270264,
          "201": -1.65982985496521,
          "202": 0.5424640774726868,
          "203": 2.0267248153686523,
          "204": -0.18235859274864197,
          "205": 1.6913279294967651,
          "206": -0.4166058599948883,
          "207": 1.2604776620864868,
          "208": 2.04984712600708,
          "209": 0.4547915756702423,
          "210": 2.382007122039795,
          "211": -1.650810718536377,
          "212": 2.8196446895599365,
          "213": 0.27814531326293945,
          "214": -0.14856688678264618,
          "215": -0.6373564600944519,
          "216": 1.7754817008972168,
          "217": -0.6485998630523682,
          "218": -0.6639633774757385,
          "219": 0.8691537380218506,
          "220": -1.5413638353347778,
          "221": 2.4243617057800293,
          "222": 2.33837628364563,
          "223": 0.21028178930282593,
          "224": -0.8841552138328552,
          "225": 0.536255955696106,
          "226": 0.5499371886253357,
          "227": 0.9614103436470032,
          "228": 2.74121356010437,
          "229": 1.789849877357483,
          "230": -1.9341051578521729,
          "231": 0.27439695596694946,
          "232": 4.020008563995361,
          "233": 0.9587612748146057,
          "234": 0.6092296838760376,
          "235": 0.6957955360412598,
          "236": -0.9264492392539978,
          "237": -0.1815427541732788,
          "238": 1.0992141962051392,
          "239": 0.13780218362808228,
          "240": 0.916612446308136,
          "241": 1.7539564371109009,
          "242": -2.945546865463257,
          "243": -1.7863668203353882,
          "244": -1.1778208017349243,
          "245": -1.023425579071045,
          "246": -5.33655309677124,
          "247": -1.3495454788208008,
          "248": 0.9403115510940552,
          "249": -0.1487722545862198,
          "250": 5.378047466278076,
          "251": 0.991132915019989,
          "252": 0.44205617904663086,
          "253": -1.5043835639953613,
          "254": 2.425974130630493,
          "255": -1.983452558517456,
          "256": 0.6952266693115234,
          "257": -1.3554174900054932,
          "258": -2.0686378479003906,
          "259": 0.9059387445449829,
          "260": -1.6520771980285645,
          "261": -0.8715867400169373,
          "262": 2.639106035232544,
          "263": 2.9782650470733643,
          "264": -0.6103717684745789,
          "265": 0.18373414874076843,
          "266": -0.6576051115989685,
          "267": -2.1916136741638184,
          "268": 0.42379558086395264,
          "269": 0.2675139009952545,
          "270": 0.3408253490924835,
          "271": 1.6828149557113647,
          "272": -0.01489927712827921,
          "273": 0.46519172191619873,
          "274": 1.5066026449203491,
          "275": -2.0504839420318604,
          "276": -2.4061994552612305,
          "277": -0.5013823509216309,
          "278": 0.7702534198760986,
          "279": -2.9445598125457764,
          "280": -1.8968865871429443,
          "281": 0.36229366064071655,
          "282": 0.15817002952098846,
          "283": 0.20653514564037323,
          "284": -1.70011305809021,
          "285": 1.2810574769973755,
          "286": 0.0728759914636612,
          "287": 0.6143113970756531,
          "288": 0.7985999584197998,
          "289": -0.8579710125923157,
          "290": 1.66563081741333,
          "291": 1.4655715227127075,
          "292": -3.206850051879883,
          "293": 1.3991894721984863,
          "294": 0.9463875889778137,
          "295": -2.4658923149108887,
          "296": 1.7777457237243652,
          "297": -1.0142015218734741,
          "298": 0.745180606842041,
          "299": -1.0213299989700317,
          "300": -0.35120779275894165,
          "301": -0.5214352011680603,
          "302": -2.061549425125122,
          "303": -0.961377739906311,
          "304": 1.2428936958312988,
          "305": 2.6009109020233154,
          "306": 1.3632922172546387,
          "307": 1.2769545316696167,
          "308": 0.6326063871383667,
          "309": 0.26165568828582764,
          "310": -0.95932936668396,
          "311": 1.4353801012039185,
          "312": 0.5332797169685364,
          "313": 2.961588144302368,
          "314": 1.0338674783706665,
          "315": 1.9025591611862183,
          "316": 3.2715063095092773,
          "317": -0.17101429402828217,
          "318": -1.8956189155578613,
          "319": 1.7724531888961792,
          "320": -0.14343005418777466,
          "321": -2.0655291080474854,
          "322": 0.534558892250061,
          "323": 1.2600789070129395,
          "324": 1.321932315826416,
          "325": 1.3995047807693481,
          "326": 0.5389705896377563,
          "327": 0.3873335123062134,
          "328": -0.1776738166809082,
          "329": 0.369680255651474,
          "330": -0.25629475712776184,
          "331": -0.8408730626106262,
          "332": 1.2227821350097656,
          "333": -0.19129732251167297,
          "334": 0.9077662825584412,
          "335": -0.5219811201095581,
          "336": -1.2403558492660522,
          "337": 2.0141589641571045,
          "338": 0.8017841577529907,
          "339": -1.3851591348648071,
          "340": 1.7975213527679443,
          "341": -0.5078572630882263,
          "342": -2.1245710849761963,
          "343": 1.3311247825622559,
          "344": 1.0094329118728638,
          "345": -0.4277026653289795,
          "346": -1.4022899866104126,
          "347": 0.9918375015258789,
          "348": 1.3394520282745361,
          "349": -1.4150378704071045,
          "350": 1.8581030368804932,
          "351": -3.4152579307556152,
          "352": -0.10976404696702957,
          "353": 0.5478247404098511,
          "354": 1.5099202394485474,
          "355": -0.833017110824585,
          "356": 2.043405055999756,
          "357": -1.5962448120117188,
          "358": -0.6515606641769409,
          "359": -0.8055118918418884,
          "360": -1.2097375392913818,
          "361": 3.481020212173462,
          "362": -2.8097400665283203,
          "363": -0.7743851542472839,
          "364": 0.3785759508609772,
          "365": 0.12734681367874146,
          "366": -1.344667673110962,
          "367": 1.6037001609802246,
          "368": 4.141250133514404,
          "369": -1.406962513923645,
          "370": 1.3072423934936523,
          "371": 0.2991351783275604,
          "372": 0.839451789855957,
          "373": 0.1459295153617859,
          "374": 0.06632228940725327,
          "375": -0.8258156180381775,
          "376": 2.1203463077545166,
          "377": -0.15764591097831726,
          "378": 0.13447153568267822,
          "379": -0.46137794852256775,
          "380": -0.8655293583869934,
          "381": -0.6862362623214722,
          "382": 0.07642198354005814,
          "383": -1.705925464630127,
          "384": 1.0389723777770996,
          "385": -1.4393168687820435,
          "386": -1.7392117977142334,
          "387": -0.7291054725646973,
          "388": 2.886561870574951,
          "389": 1.988187551498413,
          "390": 0.7268103361129761,
          "391": 1.3871257305145264,
          "392": 1.5610018968582153,
          "393": 1.557247281074524,
          "394": -1.5121153593063354,
          "395": 1.6518902778625488,
          "396": -0.6745867133140564,
          "397": -1.0983363389968872,
          "398": -0.5431347489356995,
          "399": 0.10068251192569733,
          "400": -0.34896180033683777,
          "401": 0.21926358342170715,
          "402": -0.8888185620307922,
          "403": -0.8218802213668823,
          "404": -1.6427371501922607,
          "405": -1.5509823560714722,
          "406": -0.8724466562271118,
          "407": 0.8696318864822388,
          "408": 0.4968649744987488,
          "409": 2.95048451423645,
          "410": 1.1680858135223389,
          "411": 1.2145110368728638,
          "412": -4.051253795623779,
          "413": -0.8085126876831055,
          "414": 1.4845352172851562,
          "415": -2.2021281719207764,
          "416": 3.096195697784424,
          "417": -2.533064126968384,
          "418": -1.802262783050537,
          "419": -1.0155717134475708,
          "420": 2.4774281978607178,
          "421": -1.4195255041122437,
          "422": 1.7383778095245361,
          "423": -1.2444267272949219,
          "424": 0.3560413718223572,
          "425": -0.8373634815216064,
          "426": 1.0282741785049438,
          "427": -3.0624067783355713,
          "428": 0.002628824906423688,
          "429": -1.0375936031341553,
          "430": 1.835135579109192,
          "431": 0.0636553093791008,
          "432": -2.7386481761932373,
          "433": -0.23340751230716705,
          "434": 1.8979166746139526,
          "435": 1.554240345954895,
          "436": -2.179654598236084,
          "437": -2.4854958057403564,
          "438": 2.4858484268188477,
          "439": -1.116600513458252,
          "440": -0.9582918882369995,
          "441": 2.4044766426086426,
          "442": -1.4596961736679077,
          "443": -2.233721971511841,
          "444": 1.3521672487258911,
          "445": -0.010620108805596828,
          "446": -0.08832943439483643,
          "447": -0.33671680092811584,
          "448": -2.1318230628967285,
          "449": 1.3100714683532715,
          "450": 1.9454255104064941,
          "451": -0.5638938546180725,
          "452": -2.488394021987915,
          "453": 2.0117297172546387,
          "454": 1.6814905405044556,
          "455": -0.6926107406616211,
          "456": -1.27146577835083,
          "457": -0.2349417358636856,
          "458": 1.3863805532455444,
          "459": -0.9413034319877625,
          "460": 2.3820302486419678,
          "461": -1.9083484411239624,
          "462": 0.4036949872970581,
          "463": -0.7025855183601379,
          "464": 0.333683043718338,
          "465": -0.5856919884681702,
          "466": 1.5797964334487915,
          "467": 0.9816707372665405,
          "468": -0.13418380916118622,
          "469": 0.6466298699378967,
          "470": 0.1383104920387268,
          "471": 0.8926806449890137,
          "472": 0.08305981010198593,
          "473": 2.080801248550415,
          "474": 2.0320990085601807,
          "475": -0.015512269921600819,
          "476": 1.8599607944488525,
          "477": 0.8940344452857971,
          "478": -0.8685546517372131,
          "479": -0.24295151233673096,
          "480": -1.9169286489486694,
          "481": 0.8170220255851746,
          "482": -0.17611542344093323,
          "483": 0.975269079208374,
          "484": 1.190282940864563,
          "485": 1.8983533382415771,
          "486": -1.61163330078125,
          "487": 1.8983415365219116,
          "488": -1.2453508377075195,
          "489": -1.5221552848815918,
          "490": -0.6371595859527588,
          "491": 0.6801266670227051,
          "492": 1.2222896814346313,
          "493": 1.2008756399154663,
          "494": 0.3314364552497864,
          "495": 0.4040733575820923,
          "496": -0.9260239601135254,
          "497": 1.014998197555542,
          "498": -0.4129774570465088,
          "499": -0.049507979303598404,
          "500": 1.508179783821106,
          "501": -0.06867773085832596,
          "502": 1.4515328407287598,
          "503": -1.7072348594665527,
          "504": -3.967294454574585,
          "505": 0.5962547659873962,
          "506": -0.30645474791526794,
          "507": -0.7549225091934204,
          "508": 0.4692246913909912,
          "509": 0.28815895318984985,
          "510": -0.9157909750938416,
          "511": 4.067026615142822,
          "512": 0.5354171991348267,
          "513": -0.7189238667488098,
          "514": -0.6340283155441284,
          "515": 1.2886443138122559,
          "516": 0.5857410430908203,
          "517": 0.0346946194767952,
          "518": -0.9241728186607361,
          "519": -1.0270737409591675,
          "520": -1.3787585496902466,
          "521": -0.8094332218170166,
          "522": -1.766068935394287,
          "523": -0.043910879641771317,
          "524": 1.5388864278793335,
          "525": 0.8638070821762085,
          "526": 1.05422043800354,
          "527": -1.0644117593765259,
          "528": 0.36307191848754883,
          "529": -0.7698776125907898,
          "530": 0.2866232991218567,
          "531": 1.993114948272705,
          "532": 1.1789387464523315,
          "533": -1.0471636056900024,
          "534": -1.1516591310501099,
          "535": 1.8430730104446411,
          "536": 1.837259292602539,
          "537": 0.10121061652898788,
          "538": 0.2236213982105255,
          "539": 1.1576933860778809,
          "540": 0.05860044062137604,
          "541": 2.369413375854492,
          "542": -0.7372303009033203,
          "543": 0.7765743136405945,
          "544": -0.2008369266986847,
          "545": 0.4301380217075348,
          "546": -0.5733788013458252,
          "547": -1.2490147352218628,
          "548": 1.28605055809021,
          "549": 0.16936446726322174,
          "550": 0.5113400816917419,
          "551": 1.042831540107727,
          "552": 0.19324198365211487,
          "553": 2.1621463298797607,
          "554": -1.1319953203201294,
          "555": 3.2336294651031494,
          "556": -1.654616355895996,
          "557": -1.5038955211639404,
          "558": 0.2856050431728363,
          "559": 0.3456260859966278,
          "560": 0.40604087710380554,
          "561": 0.5858275890350342,
          "562": -2.067988634109497,
          "563": -1.1360483169555664,
          "564": -0.43630287051200867,
          "565": -0.41209086775779724,
          "566": 0.46312105655670166,
          "567": -2.055530071258545,
          "568": 2.5450243949890137,
          "569": 2.1320950984954834,
          "570": -0.9265210032463074,
          "571": 3.2456541061401367,
          "572": 0.29673266410827637,
          "573": -0.05609937757253647,
          "574": -3.74198579788208,
          "575": 3.543060541152954,
          "576": -2.12459659576416,
          "577": 0.18509776890277863,
          "578": -0.22379173338413239,
          "579": 1.3305680751800537,
          "580": 1.155741572380066,
          "581": 3.193305492401123,
          "582": 2.0060930252075195,
          "583": -0.6357845067977905,
          "584": -0.32340380549430847,
          "585": -0.8459452390670776,
          "586": 0.27744626998901367,
          "587": -0.08458864688873291,
          "588": -0.8924911022186279,
          "589": -0.4042370617389679,
          "590": 0.5948509573936462,
          "591": 0.03842788189649582,
          "592": -2.035040855407715,
          "593": -2.15640926361084,
          "594": -0.6806537508964539,
          "595": -0.7979451417922974,
          "596": 0.01390902977436781,
          "597": 1.2050602436065674,
          "598": 2.363560914993286,
          "599": -1.5196009874343872,
          "600": -1.0845491886138916,
          "601": 0.28157132863998413,
          "602": 0.9845495223999023,
          "603": -3.891556978225708,
          "604": 3.2810146808624268,
          "605": 0.46650421619415283,
          "606": -4.5101447105407715,
          "607": -2.8024797439575195,
          "608": 1.1489733457565308,
          "609": 2.4586400985717773,
          "610": -0.7101020812988281,
          "611": 0.5997631549835205,
          "612": 0.9892017841339111,
          "613": 1.6056169271469116,
          "614": 2.13551664352417,
          "615": -1.9357163906097412,
          "616": -0.5171093344688416,
          "617": -1.065845251083374,
          "618": 0.42737188935279846,
          "619": -3.218280792236328,
          "620": 4.408562183380127,
          "621": 0.6887919306755066,
          "622": -0.8206655979156494,
          "623": 1.3902429342269897,
          "624": 2.1455078125,
          "625": 0.7301912307739258,
          "626": -1.640523910522461,
          "627": -0.35637718439102173,
          "628": 1.0533382892608643,
          "629": 0.4394854009151459,
          "630": -0.8077684640884399,
          "631": -0.6943696737289429,
          "632": 0.13668358325958252,
          "633": -0.4612348675727844,
          "634": -0.49155715107917786,
          "635": 1.3252174854278564,
          "636": 3.357562780380249,
          "637": 1.39850652217865,
          "638": 1.5815329551696777,
          "639": 1.2503504753112793,
          "640": 2.053184986114502,
          "641": 0.5506715178489685,
          "642": 0.8507671356201172,
          "643": 1.2139997482299805,
          "644": -1.3192096948623657,
          "645": 0.5976577401161194,
          "646": 0.15134936571121216,
          "647": -0.6292959451675415,
          "648": 0.019874775782227516,
          "649": 0.4303208589553833,
          "650": -0.5688256025314331,
          "651": -1.4140236377716064,
          "652": 0.6818181276321411,
          "653": -2.1026382446289062,
          "654": -2.05233097076416,
          "655": 0.2462380826473236,
          "656": 0.4012472331523895,
          "657": 0.7903603315353394,
          "658": -1.562388300895691,
          "659": 1.4148762226104736,
          "660": -0.059448543936014175,
          "661": 1.7767584323883057,
          "662": -1.383297324180603,
          "663": 1.6329511404037476,
          "664": 1.859828233718872,
          "665": 1.7490925788879395,
          "666": -0.03864452615380287,
          "667": 0.16811254620552063,
          "668": -0.1343277096748352,
          "669": 0.5356459617614746,
          "670": -0.86799156665802,
          "671": 1.9153865575790405,
          "672": -4.8843817710876465,
          "673": -2.1189522743225098,
          "674": 1.4922428131103516,
          "675": -5.520859241485596,
          "676": 0.16359354555606842,
          "677": -3.2430613040924072,
          "678": -1.1657512187957764,
          "679": 1.5672895908355713,
          "680": -1.171277642250061,
          "681": 2.7558863162994385,
          "682": 0.903968095779419,
          "683": 1.3342334032058716,
          "684": 0.9923993349075317,
          "685": -1.174164891242981,
          "686": 0.6081115007400513,
          "687": -0.1689978390932083,
          "688": -2.3040597438812256,
          "689": 0.7569572925567627,
          "690": -3.4463047981262207,
          "691": -2.0180413722991943,
          "692": 0.48705384135246277,
          "693": -2.4654343128204346,
          "694": 1.234422206878662,
          "695": -0.04564105346798897,
          "696": -0.02657253108918667,
          "697": 0.8904076814651489,
          "698": -2.7413673400878906,
          "699": -1.4781197309494019,
          "700": -3.535017251968384,
          "701": 4.849575042724609,
          "702": -0.7131016254425049,
          "703": 1.0218876600265503,
          "704": 1.540846347808838,
          "705": 0.9588770270347595,
          "706": 0.18604883551597595,
          "707": 0.8174229264259338,
          "708": 2.755861520767212,
          "709": -1.2337889671325684,
          "710": -2.6953556537628174,
          "711": -2.9889440536499023,
          "712": -1.27950918674469,
          "713": 0.2692646384239197,
          "714": 0.1872856467962265,
          "715": 0.5530378222465515,
          "716": 0.10984164476394653,
          "717": -1.6180894374847412,
          "718": -1.6393619775772095,
          "719": 0.5599234104156494,
          "720": -2.0711050033569336,
          "721": 1.440125823020935,
          "722": -2.1579458713531494,
          "723": 1.6879829168319702,
          "724": -2.2291641235351562,
          "725": 0.8420143127441406,
          "726": 2.1837291717529297,
          "727": -0.41792237758636475,
          "728": 2.5855696201324463,
          "729": 0.5290777683258057,
          "730": 1.6793416738510132,
          "731": -1.7340675592422485,
          "732": -1.775437593460083,
          "733": -0.45448821783065796,
          "734": 0.7824454307556152,
          "735": -0.1805950552225113,
          "736": 3.260408401489258,
          "737": 1.7867177724838257,
          "738": 3.7687385082244873,
          "739": 1.3729535341262817,
          "740": 2.2006912231445312,
          "741": 0.22148187458515167,
          "742": -0.7110121846199036,
          "743": 0.3847072124481201,
          "744": 0.43648573756217957,
          "745": -1.9200022220611572,
          "746": -0.17049698531627655,
          "747": 1.351475715637207,
          "748": 1.7241977453231812,
          "749": 1.76457941532135,
          "750": 1.371724247932434,
          "751": 1.7015997171401978,
          "752": -2.3503026962280273,
          "753": 0.7836318016052246,
          "754": -0.7836845517158508,
          "755": -1.685646414756775,
          "756": 1.2129350900650024,
          "757": 0.9725229144096375,
          "758": -1.9677188396453857,
          "759": 1.4402227401733398,
          "760": -1.2747735977172852,
          "761": 1.697521686553955,
          "762": 0.5490279197692871,
          "763": -1.7200915813446045,
          "764": -2.2260115146636963,
          "765": -0.23477572202682495,
          "766": -2.9777181148529053,
          "767": 1.2494438886642456,
          "768": 0.8291671872138977,
          "769": -1.2140190601348877,
          "770": -3.8548622131347656,
          "771": -0.2781349718570709,
          "772": 1.9143399000167847,
          "773": 0.9670490026473999,
          "774": -0.1807766854763031,
          "775": 1.1390796899795532,
          "776": -2.9216692447662354,
          "777": -1.9254459142684937,
          "778": 1.697657585144043,
          "779": 1.3790836334228516,
          "780": 0.7701697945594788,
          "781": 1.963572382926941,
          "782": -1.717079758644104,
          "783": 2.0592758655548096,
          "784": 0.12954074144363403,
          "785": -1.2225465774536133,
          "786": -3.3483214378356934,
          "787": -1.0673195123672485,
          "788": 0.4598047435283661,
          "789": 0.10015185922384262,
          "790": 0.7392892837524414,
          "791": -1.4547295570373535,
          "792": -1.093210220336914,
          "793": -0.16061516106128693,
          "794": -2.638871669769287,
          "795": -1.5816420316696167,
          "796": 0.32200461626052856,
          "797": 1.196152687072754,
          "798": 1.2094053030014038,
          "799": -1.0806654691696167,
          "800": -1.093697428703308,
          "801": 2.5841195583343506,
          "802": 1.82235848903656,
          "803": -1.044593095779419,
          "804": -2.739142417907715,
          "805": -1.298140287399292,
          "806": -2.080273151397705,
          "807": 2.3538286685943604,
          "808": 0.807935357093811,
          "809": -3.3277523517608643,
          "810": -0.7758773565292358,
          "811": 2.1276164054870605,
          "812": 1.124008297920227,
          "813": 1.3394215106964111,
          "814": -3.297935962677002,
          "815": -1.3411667346954346,
          "816": 0.1631896048784256,
          "817": -0.10629754513502121,
          "818": 0.12973594665527344,
          "819": -1.8264718055725098,
          "820": -1.6163733005523682,
          "821": 2.0866761207580566,
          "822": -0.6450831294059753,
          "823": 1.9643616676330566,
          "824": 1.1921712160110474,
          "825": -0.14465437829494476,
          "826": -2.341089963912964,
          "827": -0.12426812946796417,
          "828": 0.44419926404953003,
          "829": -0.9132291674613953,
          "830": -1.6421619653701782,
          "831": 1.7293360233306885,
          "832": -0.2850598096847534,
          "833": 2.235991954803467,
          "834": 1.8095991611480713,
          "835": 1.9298440217971802,
          "836": -0.10063289105892181,
          "837": -0.11058181524276733,
          "838": -0.9387694001197815,
          "839": 0.9256680011749268
        }
      },
      "inputHidden": {
        "rows": 20,
        "columns": 20,
        "weights": {
          "0": -0.499359130859375,
          "1": -0.11707863956689835,
          "2": 0.1565227210521698,
          "3": -1.523144006729126,
          "4": -0.46309351921081543,
          "5": 1.5331196784973145,
          "6": 0.5387123823165894,
          "7": -0.9106125831604004,
          "8": 2.461927652359009,
          "9": 1.0271872282028198,
          "10": -1.4958724975585938,
          "11": 1.2448458671569824,
          "12": -0.16437695920467377,
          "13": 1.5975446701049805,
          "14": -0.9904807806015015,
          "15": -1.388885498046875,
          "16": -0.1315080225467682,
          "17": -0.17481011152267456,
          "18": 0.6577855348587036,
          "19": -0.2992948293685913,
          "20": -2.9053986072540283,
          "21": 0.052731189876794815,
          "22": -1.100096344947815,
          "23": -1.6239272356033325,
          "24": -3.925448179244995,
          "25": -0.6888299584388733,
          "26": -2.465235471725464,
          "27": -1.0949370861053467,
          "28": -3.1735498905181885,
          "29": 0.5977731943130493,
          "30": -2.215334415435791,
          "31": 0.2586314380168915,
          "32": -0.6005568504333496,
          "33": 0.93928062915802,
          "34": -3.230656147003174,
          "35": 1.4716471433639526,
          "36": 2.8990602493286133,
          "37": 0.8612135052680969,
          "38": 0.6053363084793091,
          "39": 3.0040807723999023,
          "40": 2.499924898147583,
          "41": 2.383988618850708,
          "42": 1.1661854982376099,
          "43": 4.003799915313721,
          "44": 1.482790470123291,
          "45": 0.19813521206378937,
          "46": -1.850514531135559,
          "47": -0.8023735880851746,
          "48": -0.9919865131378174,
          "49": -1.4181771278381348,
          "50": 1.1317936182022095,
          "51": -3.1364054679870605,
          "52": -2.7930076122283936,
          "53": 0.24740883708000183,
          "54": 2.709489107131958,
          "55": 1.3072236776351929,
          "56": -0.9837862253189087,
          "57": 1.6343462467193604,
          "58": -0.7280218005180359,
          "59": 3.0728566646575928,
          "60": -1.9298244714736938,
          "61": 1.2878382205963135,
          "62": 0.6959859728813171,
          "63": 0.7262635827064514,
          "64": -3.343261241912842,
          "65": -1.027829647064209,
          "66": -3.6317880153656006,
          "67": 0.25280657410621643,
          "68": -1.1844754219055176,
          "69": 5.624330043792725,
          "70": -6.120911598205566,
          "71": -0.7952297329902649,
          "72": 1.7768120765686035,
          "73": -1.455748200416565,
          "74": -1.4586223363876343,
          "75": 2.8758623600006104,
          "76": 3.956113815307617,
          "77": 0.4887087941169739,
          "78": 0.4538450241088867,
          "79": 2.417231798171997,
          "80": -0.9645212292671204,
          "81": -0.18935900926589966,
          "82": 0.5466952323913574,
          "83": -2.9933948516845703,
          "84": -1.779497504234314,
          "85": 2.0457611083984375,
          "86": 0.4966152310371399,
          "87": -1.2358160018920898,
          "88": -0.12071440368890762,
          "89": 2.3778111934661865,
          "90": 1.0340576171875,
          "91": -1.4903792142868042,
          "92": 1.4619882106781006,
          "93": 0.14593537151813507,
          "94": 0.17906269431114197,
          "95": -1.0284308195114136,
          "96": 1.2082046270370483,
          "97": -2.4220004081726074,
          "98": 2.299179792404175,
          "99": 0.35290616750717163,
          "100": -5.9699320793151855,
          "101": -3.059347629547119,
          "102": -0.6829017400741577,
          "103": 2.8850457668304443,
          "104": -3.572613000869751,
          "105": 0.15995779633522034,
          "106": 1.5015817880630493,
          "107": 2.431741237640381,
          "108": -1.682881474494934,
          "109": 2.3293988704681396,
          "110": -3.706193685531616,
          "111": 1.9135011434555054,
          "112": 0.35697928071022034,
          "113": 1.9629594087600708,
          "114": -1.3259508609771729,
          "115": 2.6274287700653076,
          "116": 1.4693355560302734,
          "117": -2.4319562911987305,
          "118": 1.5922846794128418,
